{"learner":{"attributes":{"scikit_learn":"{\"_estimator_type\": \"classifier\"}"},"feature_names":[],"feature_types":[],"gradient_booster":{"model":{"gbtree_model_param":{"num_parallel_tree":"1","num_trees":"100"},"iteration_indptr":[0,1,2,3,4,5,6,7,8,9,10,11,12,13,14,15,16,17,18,19,20,21,22,23,24,25,26,27,28,29,30,31,32,33,34,35,36,37,38,39,40,41,42,43,44,45,46,47,48,49,50,51,52,53,54,55,56,57,58,59,60,61,62,63,64,65,66,67,68,69,70,71,72,73,74,75,76,77,78,79,80,81,82,83,84,85,86,87,88,89,90,91,92,93,94,95,96,97,98,99,100],"tree_info":[0,0,0,0,0,0,0,0,0,0,0,0,0,0,0,0,0,0,0,0,0,0,0,0,0,0,0,0,0,0,0,0,0,0,0,0,0,0,0,0,0,0,0,0,0,0,0,0,0,0,0,0,0,0,0,0,0,0,0,0,0,0,0,0,0,0,0,0,0,0,0,0,0,0,0,0,0,0,0,0,0,0,0,0,0,0,0,0,0,0,0,0,0,0,0,0,0,0,0,0],"trees":[{"base_weights":[-9.3941246E-8,1.1936735E0,-2.369796E0,1.4186951E0,-1.6882651E0,1.1055535E-2,-2.5256354E-1,1.4744914E-1,-2.1189794E-2,-6.5913424E-3,-2.0942883E-1],"categories":[],"categories_nodes":[],"categories_segments":[],"categories_sizes":[],"default_left":[0,0,0,0,0,0,0,0,0,0,0],"id":0,"left_children":[1,3,5,7,9,-1,-1,-1,-1,-1,-1],"loss_changes":[3.0615292E2,4.9070618E1,1.4292664E1,6.435959E0,3.5964546E0,0E0,0E0,0E0,0E0,0E0,0E0],"parents":[2147483647,0,0,1,1,2,2,3,3,4,4],"right_children":[2,4,6,8,10,-1,-1,-1,-1,-1,-1],"split_conditions":[1.424E-1,9.67E2,1.485E1,4.314E1,1.935E-1,1.1055535E-2,-2.5256354E-1,1.4744914E-1,-2.1189794E-2,-6.5913424E-3,-2.0942883E-1],"split_indices":[27,23,20,13,26,0,0,0,0,0,0],"split_type":[0,0,0,0,0,0,0,0,0,0,0],"sum_hessian":[1.0622857E2,7.097469E1,3.5253876E1,6.6305305E1,4.669388E0,2.1012244E0,3.3152653E1,6.420408E1,2.1012244E0,1.167347E0,3.5020406E0],"tree_param":{"num_deleted":"0","num_feature":"30","num_nodes":"11","size_leaf_vector":"1"}},{"base_weights":[1.0598992E-3,1.2493836E0,-1.8533348E0,1.405674E0,-6.907379E-1,3.692889E-1,-2.0687652E0,1.4366442E-1,-9.083263E-3,8.7642275E-2,-1.420793E-1,1.0934558E-1,-9.613953E-2,-1.334546E-2,-2.240989E-1],"categories":[],"categories_nodes":[],"categories_segments":[],"categories_sizes":[],"default_left":[0,0,0,0,0,0,0,0,0,0,0,0,0,0,0],"id":1,"left_children":[1,3,5,7,9,11,13,-1,-1,-1,-1,-1,-1,-1,-1],"loss_changes":[2.4858508E2,2.0431885E1,2.1451355E1,2.8985748E0,7.486641E0,5.547751E0,1.2879425E1,0E0,0E0,0E0,0E0,0E0,0E0,0E0,0E0],"parents":[2147483647,0,0,1,1,2,2,3,3,4,4,5,5,6,6],"right_children":[2,4,6,8,10,12,14,-1,-1,-1,-1,-1,-1,-1,-1],"split_conditions":[5.074E-2,1.684E1,1.022E2,4.106E0,1.573E1,2.548E1,1.929E1,1.4366442E-1,-9.083263E-3,8.7642275E-2,-1.420793E-1,1.0934558E-1,-9.613953E-2,-1.334546E-2,-2.240989E-1],"split_indices":[7,20,22,12,1,21,21,0,0,0,0,0,0,0,0],"split_type":[0,0,0,0,0,0,0,0,0,0,0,0,0,0,0],"sum_hessian":[1.0538523E2,6.3180347E1,4.220488E1,5.8725098E1,4.4552507E0,3.666182E0,3.85387E1,5.7573616E1,1.1514812E0,1.3521633E0,3.1030874E0,2.4896007E0,1.1765814E0,3.2943513E0,3.5244347E1],"tree_param":{"num_deleted":"0","num_feature":"30","num_nodes":"15","size_leaf_vector":"1"}},{"base_weights":[2.538632E-3,1.1806084E0,-1.6467046E0,1.3342954E0,-6.2608534E-1,-2.9717708E-1,-1.9597831E0,1.365255E-1,-8.585018E-3,6.450222E-2,-1.4221E-1,1.1605014E-1,-1.2101471E-1,-2.0093746E-1,-3.1714417E-2],"categories":[],"categories_nodes":[],"categories_segments":[],"categories_sizes":[],"default_left":[0,0,0,0,0,0,0,0,0,0,0,0,0,0,0],"id":2,"left_children":[1,3,5,7,9,11,13,-1,-1,-1,-1,-1,-1,-1,-1],"loss_changes":[2.0441696E2,1.7875984E1,1.794011E1,2.6180115E0,6.4741044E0,1.3959251E1,2.2469025E0,0E0,0E0,0E0,0E0,0E0,0E0,0E0,0E0],"parents":[2147483647,0,0,1,1,2,2,3,3,4,4,5,5,6,6],"right_children":[2,4,6,8,10,12,14,-1,-1,-1,-1,-1,-1,-1,-1],"split_conditions":[5.074E-2,1.684E1,1.466E-1,4.106E0,1.83E1,2.288E1,9.96E-2,1.365255E-1,-8.585018E-3,6.450222E-2,-1.4221E-1,1.1605014E-1,-1.2101471E-1,-2.0093746E-1,-3.1714417E-2],"split_indices":[7,20,27,12,1,21,16,0,0,0,0,0,0,0,0],"split_type":[0,0,0,0,0,0,0,0,0,0,0,0,0,0,0],"sum_hessian":[1.0321041E2,6.0371E1,4.2839417E1,5.5879097E1,4.491902E0,8.433962E0,3.4405453E1,5.4724735E1,1.1543629E0,1.8028022E0,2.6890996E0,3.143622E0,5.29034E0,3.318047E1,1.2249846E0],"tree_param":{"num_deleted":"0","num_feature":"30","num_nodes":"15","size_leaf_vector":"1"}},{"base_weights":[2.6519399E-3,1.12143E0,-1.4927133E0,1.2737792E0,-5.765424E-1,3.7712204E-1,-1.6708361E0,1.3056447E-1,-1.0850388E-2,8.151873E-2,-1.19392075E-1,1.0378331E-1,-7.9463094E-2,-1.0283883E-2,-1.8070862E-1],"categories":[],"categories_nodes":[],"categories_segments":[],"categories_sizes":[],"default_left":[0,0,0,0,0,0,0,0,0,0,0,0,0,0,0],"id":3,"left_children":[1,3,5,7,9,11,13,-1,-1,-1,-1,-1,-1,-1,-1],"loss_changes":[1.707368E2,1.5835678E1,1.5177361E1,2.51503E0,5.6946983E0,4.3973827E0,8.373161E0,0E0,0E0,0E0,0E0,0E0,0E0,0E0,0E0],"parents":[2147483647,0,0,1,1,2,2,3,3,4,4,5,5,6,6],"right_children":[2,4,6,8,10,12,14,-1,-1,-1,-1,-1,-1,-1,-1],"split_conditions":[5.074E-2,1.684E1,1.022E2,4.276E1,1.573E1,2.548E1,1.929E1,1.3056447E-1,-1.0850388E-2,8.151873E-2,-1.19392075E-1,1.0378331E-1,-7.9463094E-2,-1.0283883E-2,-1.8070862E-1],"split_indices":[7,20,22,13,1,21,21,0,0,0,0,0,0,0,0],"split_type":[0,0,0,0,0,0,0,0,0,0,0,0,0,0,0],"sum_hessian":[1.0005479E2,5.7377262E1,4.2677525E1,5.288227E1,4.494993E0,3.614743E0,3.9062782E1,5.174485E1,1.1374204E0,1.2828093E0,3.212184E0,2.3844974E0,1.2302455E0,3.2632537E0,3.579953E1],"tree_param":{"num_deleted":"0","num_feature":"30","num_nodes":"15","size_leaf_vector":"1"}},{"base_weights":[3.1762666E-3,1.0704786E0,-1.3723638E0,1.2214763E0,-5.2725327E-1,-3.4524882E-1,-1.6917633E-1,1.253999E-1,-1.0510129E-2,6.0267724E-2,-1.2126549E-1,9.7349115E-2,-1.4449006E-1],"categories":[],"categories_nodes":[],"categories_segments":[],"categories_sizes":[],"default_left":[0,0,0,0,0,0,0,0,0,0,0,0,0],"id":4,"left_children":[1,3,5,7,9,11,-1,-1,-1,-1,-1,-1,-1],"loss_changes":[1.4419682E2,1.398642E1,1.3494217E1,2.3248215E0,4.970111E0,1.7990217E1,0E0,0E0,0E0,0E0,0E0,0E0,0E0],"parents":[2147483647,0,0,1,1,2,2,3,3,4,4,5,5],"right_children":[2,4,6,8,10,12,-1,-1,-1,-1,-1,-1,-1],"split_conditions":[5.074E-2,1.684E1,1.146E2,4.106E0,1.83E1,2.548E1,-1.6917633E-1,1.253999E-1,-1.0510129E-2,6.0267724E-2,-1.2126549E-1,9.7349115E-2,-1.4449006E-1],"split_indices":[7,20,22,12,1,21,0,0,0,0,0,0,0],"split_type":[0,0,0,0,0,0,0,0,0,0,0,0,0],"sum_hessian":[9.621822E1,5.4304394E1,4.1913826E1,4.983053E1,4.473868E0,1.0435758E1,3.1478067E1,4.869151E1,1.13902E0,1.7347354E0,2.7391326E0,4.7973456E0,5.6384125E0],"tree_param":{"num_deleted":"0","num_feature":"30","num_nodes":"13","size_leaf_vector":"1"}},{"base_weights":[2.466988E-3,9.1529894E-1,-1.4332858E0,1.1725504E0,-7.5473577E-1,-1.5040667E0,4.4682495E-2,1.204855E-1,-1.2810771E-2,8.666322E-2,-1.2824565E-1,-2.6193941E-2,-1.5735164E-1],"categories":[],"categories_nodes":[],"categories_segments":[],"categories_sizes":[],"default_left":[0,0,0,0,0,0,0,0,0,0,0,0,0],"id":5,"left_children":[1,3,5,7,9,11,-1,-1,-1,-1,-1,-1,-1],"loss_changes":[1.2308364E2,2.5549568E1,5.5296555E0,2.261055E0,8.188723E0,2.6422348E0,0E0,0E0,0E0,0E0,0E0,0E0,0E0],"parents":[2147483647,0,0,1,1,2,2,3,3,4,4,5,5],"right_children":[2,4,6,8,10,12,-1,-1,-1,-1,-1,-1,-1],"split_conditions":[1.424E-1,1.684E1,1.197E-1,5.506E-1,1.616E1,1.933E1,4.4682495E-2,1.204855E-1,-1.2810771E-2,8.666322E-2,-1.2824565E-1,-2.6193941E-2,-1.5735164E-1],"split_indices":[27,20,16,10,1,13,0,0,0,0,0,0,0],"split_type":[0,0,0,0,0,0,0,0,0,0,0,0,0],"sum_hessian":[9.19129E1,5.6410427E1,3.550248E1,4.913897E1,7.271459E0,3.4407158E1,1.0953214E0,4.801995E1,1.1190166E0,1.6278474E0,5.6436114E0,2.074567E0,3.2332592E1],"tree_param":{"num_deleted":"0","num_feature":"30","num_nodes":"13","size_leaf_vector":"1"}},{"base_weights":[2.48375E-3,9.886085E-1,-1.2067701E0,1.1367726E0,-4.3693843E-1,-1.7583843E-1,-1.4511259E0,1.1720377E-1,-1.3117733E-2,5.6587376E-2,-1.0396446E-1,1.0161036E-1,-8.81273E-2,-1.49406E-1,-1.6302671E-2],"categories":[],"categories_nodes":[],"categories_segments":[],"categories_sizes":[],"default_left":[0,0,0,0,0,0,0,0,0,0,0,0,0,0,0],"id":6,"left_children":[1,3,5,7,9,11,13,-1,-1,-1,-1,-1,-1,-1,-1],"loss_changes":[1.0663526E2,1.0900028E1,9.8638E0,2.1611938E0,3.8276901E0,8.323816E0,1.5446091E0,0E0,0E0,0E0,0E0,0E0,0E0,0E0,0E0],"parents":[2147483647,0,0,1,1,2,2,3,3,4,4,5,5,6,6],"right_children":[2,4,6,8,10,12,14,-1,-1,-1,-1,-1,-1,-1,-1],"split_conditions":[5.074E-2,1.684E1,1.466E-1,4.276E1,1.83E1,2.288E1,9.368E-3,1.1720377E-1,-1.3117733E-2,5.6587376E-2,-1.0396446E-1,1.0161036E-1,-8.81273E-2,-1.49406E-1,-1.6302671E-2],"split_indices":[7,20,27,13,1,21,19,0,0,0,0,0,0,0,0],"split_type":[0,0,0,0,0,0,0,0,0,0,0,0,0,0,0],"sum_hessian":[8.742301E1,4.8254665E1,3.9168343E1,4.3895008E1,4.359657E0,7.834472E0,3.1333872E1,4.2780804E1,1.1142058E0,1.6595417E0,2.7001152E0,2.749079E0,5.085393E0,3.0168423E1,1.165449E0],"tree_param":{"num_deleted":"0","num_feature":"30","num_nodes":"15","size_leaf_vector":"1"}},{"base_weights":[2.014067E-3,1.0802121E0,-1.0100757E0,1.1458762E0,-2.5491199E-2,6.774533E-1,-1.2031926E0,1.1870086E-1,-1.6364543E-2,1.0699375E-1,-4.411399E-2,1.40867755E-2,-1.3444768E-1],"categories":[],"categories_nodes":[],"categories_segments":[],"categories_sizes":[],"default_left":[0,0,0,0,0,0,0,0,0,0,0,0,0],"id":7,"left_children":[1,3,5,7,-1,9,11,-1,-1,-1,-1,-1,-1],"loss_changes":[9.2584694E1,3.8935165E0,1.507761E1,2.3130226E0,0E0,2.725895E0,7.715088E0,0E0,0E0,0E0,0E0,0E0,0E0],"parents":[2147483647,0,0,1,1,2,2,3,3,5,5,6,6],"right_children":[2,4,6,8,-1,10,12,-1,-1,-1,-1,-1,-1],"split_conditions":[1.017E2,5.669E-2,2.085E-1,4.009E1,-2.5491199E-2,1.954E1,1.962E1,1.1870086E-1,-1.6364543E-2,1.0699375E-1,-4.411399E-2,1.40867755E-2,-1.3444768E-1],"split_indices":[22,7,26,13,0,1,21,0,0,0,0,0,0],"split_type":[0,0,0,0,0,0,0,0,0,0,0,0,0],"sum_hessian":[8.284422E1,4.0079487E1,4.2764736E1,3.8335804E1,1.7436852E0,4.1338224E0,3.8630913E1,3.725904E1,1.076761E0,3.0923111E0,1.0415114E0,3.6748047E0,3.495611E1],"tree_param":{"num_deleted":"0","num_feature":"30","num_nodes":"13","size_leaf_vector":"1"}},{"base_weights":[3.032673E-3,9.2163074E-1,-1.0837386E0,1.0691836E0,-3.7480542E-1,-2.2530475E-1,-1.3668287E-1,1.10793725E-1,-1.5606606E-2,6.95469E-2,-8.34152E-2,8.939609E-2,-1.15848206E-1],"categories":[],"categories_nodes":[],"categories_segments":[],"categories_sizes":[],"default_left":[0,0,0,0,0,0,0,0,0,0,0,0,0],"id":8,"left_children":[1,3,5,7,9,11,-1,-1,-1,-1,-1,-1,-1],"loss_changes":[8.0410614E1,8.750504E0,8.658642E0,2.0460358E0,3.1369264E0,1.1843511E1,0E0,0E0,0E0,0E0,0E0,0E0,0E0],"parents":[2147483647,0,0,1,1,2,2,3,3,4,4,5,5],"right_children":[2,4,6,8,10,12,-1,-1,-1,-1,-1,-1,-1],"split_conditions":[5.074E-2,1.684E1,1.146E2,4.106E0,1.573E1,2.548E1,-1.3668287E-1,1.10793725E-1,-1.5606606E-2,6.95469E-2,-8.34152E-2,8.939609E-2,-1.15848206E-1],"split_indices":[7,20,22,12,1,21,0,0,0,0,0,0,0],"split_type":[0,0,0,0,0,0,0,0,0,0,0,0,0],"sum_hessian":[7.854656E1,4.2649147E1,3.589742E1,3.8448456E1,4.200691E0,9.347677E0,2.654974E1,3.736246E1,1.0859945E0,1.1071049E0,3.0935862E0,4.269184E0,5.0784926E0],"tree_param":{"num_deleted":"0","num_feature":"30","num_nodes":"13","size_leaf_vector":"1"}},{"base_weights":[2.2993253E-3,1.0184368E0,-9.108854E-1,1.0868032E0,-2.2652222E-2,6.326435E-1,-1.0908304E0,1.1322098E-1,-1.696848E-2,1.01527505E-1,-4.060383E-2,1.3496014E-2,-1.2270297E-1],"categories":[],"categories_nodes":[],"categories_segments":[],"categories_sizes":[],"default_left":[0,0,0,0,0,0,0,0,0,0,0,0,0],"id":9,"left_children":[1,3,5,7,-1,9,11,-1,-1,-1,-1,-1,-1],"loss_changes":[7.048505E1,3.3062096E0,1.1802376E1,2.1463661E0,0E0,2.3239322E0,6.2089195E0,0E0,0E0,0E0,0E0,0E0,0E0],"parents":[2147483647,0,0,1,1,2,2,3,3,5,5,6,6],"right_children":[2,4,6,8,-1,10,12,-1,-1,-1,-1,-1,-1],"split_conditions":[1.017E2,5.669E-2,2.085E-1,4.009E1,-2.2652222E-2,1.954E1,1.962E1,1.1322098E-1,-1.696848E-2,1.01527505E-1,-4.060383E-2,1.3496014E-2,-1.2270297E-1],"split_indices":[22,7,26,13,0,1,21,0,0,0,0,0,0],"split_type":[0,0,0,0,0,0,0,0,0,0,0,0,0],"sum_hessian":[7.396042E1,3.4952312E1,3.9008106E1,3.325326E1,1.6990513E0,3.8101058E0,3.5198E1,3.2188934E1,1.0643252E0,2.8008566E0,1.0092493E0,3.5207164E0,3.1677286E1],"tree_param":{"num_deleted":"0","num_feature":"30","num_nodes":"13","size_leaf_vector":"1"}},{"base_weights":[3.2553936E-3,7.7772033E-1,-1.1197529E0,1.0127367E0,-5.190985E-1,-1.1918463E0,4.609729E-2,1.1194455E-1,3.8433384E-2,7.490971E-2,-9.517534E-2,-6.033279E-3,-1.2507427E-1],"categories":[],"categories_nodes":[],"categories_segments":[],"categories_sizes":[],"default_left":[0,0,0,0,0,0,0,0,0,0,0,0,0],"id":10,"left_children":[1,3,5,7,9,11,-1,-1,-1,-1,-1,-1,-1],"loss_changes":[6.2494175E1,1.3485991E1,3.8917465E0,2.0065117E0,4.655443E0,1.8124237E0,0E0,0E0,0E0,0E0,0E0,0E0,0E0],"parents":[2147483647,0,0,1,1,2,2,3,3,4,4,5,5],"right_children":[2,4,6,8,10,12,-1,-1,-1,-1,-1,-1,-1],"split_conditions":[1.418E-1,1.684E1,1.197E-1,2.158E1,1.616E1,2.137E-1,4.609729E-2,1.1194455E-1,3.8433384E-2,7.490971E-2,-9.517534E-2,-6.033279E-3,-1.2507427E-1],"split_indices":[27,20,16,1,1,10,0,0,0,0,0,0,0],"split_type":[0,0,0,0,0,0,0,0,0,0,0,0,0],"sum_hessian":[6.9853355E1,4.1524265E1,2.8329088E1,3.5339005E1,6.1852603E0,2.7328701E1,1.0003878E0,2.9541216E1,5.7977877E0,1.3873299E0,4.7979302E0,1.4522676E0,2.5876432E1],"tree_param":{"num_deleted":"0","num_feature":"30","num_nodes":"13","size_leaf_vector":"1"}},{"base_weights":[4.178845E-3,8.4122074E-1,-9.575157E-1,9.8546237E-1,-2.8282696E-1,-1.6727775E-1,-1.2369899E-1,1.0321268E-1,-2.1484382E-2,3.904341E-2,-9.515968E-2,8.371246E-2,-1.02040194E-1],"categories":[],"categories_nodes":[],"categories_segments":[],"categories_sizes":[],"default_left":[0,0,0,0,0,0,0,0,0,0,0,0,0],"id":11,"left_children":[1,3,5,7,9,11,-1,-1,-1,-1,-1,-1,-1],"loss_changes":[5.4523495E1,6.149721E0,6.7546406E0,2.0317879E0,2.5756412E0,8.90178E0,0E0,0E0,0E0,0E0,0E0,0E0,0E0],"parents":[2147483647,0,0,1,1,2,2,3,3,4,4,5,5],"right_children":[2,4,6,8,10,12,-1,-1,-1,-1,-1,-1,-1],"split_conditions":[5.074E-2,1.684E1,1.146E2,4.106E0,1.954E1,2.548E1,-1.2369899E-1,1.0321268E-1,-2.1484382E-2,3.904341E-2,-9.515968E-2,8.371246E-2,-1.02040194E-1],"split_indices":[7,20,22,12,1,21,0,0,0,0,0,0,0],"split_type":[0,0,0,0,0,0,0,0,0,0,0,0,0],"sum_hessian":[6.573222E1,3.5210712E1,3.0521507E1,3.1315493E1,3.8952196E0,8.39172E0,2.2129787E1,3.027847E1,1.037024E0,2.1484907E0,1.7467288E0,3.8627596E0,4.5289598E0],"tree_param":{"num_deleted":"0","num_feature":"30","num_nodes":"13","size_leaf_vector":"1"}},{"base_weights":[2.3823057E-3,7.197349E-1,-1.051127E0,9.591027E-1,-4.7994065E-1,5.2287675E-2,-1.1745044E0,1.0772562E-1,3.0970454E-2,7.074457E-2,-8.749964E-2,8.8521205E-2,-8.2420595E-2,-3.3616465E-2,-1.1978209E-1],"categories":[],"categories_nodes":[],"categories_segments":[],"categories_sizes":[],"default_left":[0,0,0,0,0,0,0,0,0,0,0,0,0,0,0],"id":12,"left_children":[1,3,5,7,9,11,13,-1,-1,-1,-1,-1,-1,-1,-1],"loss_changes":[4.8092625E1,1.1331274E1,3.5709114E0,2.11347E0,3.885448E0,3.3212705E0,5.140686E-2,0E0,0E0,0E0,0E0,0E0,0E0,0E0,0E0],"parents":[2147483647,0,0,1,1,2,2,3,3,4,4,5,5,6,6],"right_children":[2,4,6,8,10,12,14,-1,-1,-1,-1,-1,-1,-1,-1],"split_conditions":[1.424E-1,1.684E1,1.534E1,2.158E1,1.616E1,1.074E-1,6.218E-1,1.0772562E-1,3.0970454E-2,7.074457E-2,-8.749964E-2,8.8521205E-2,-8.2420595E-2,-3.3616465E-2,-1.1978209E-1],"split_indices":[27,20,20,1,1,4,11,0,0,0,0,0,0,0,0],"split_type":[0,0,0,0,0,0,0,0,0,0,0,0,0,0,0],"sum_hessian":[6.163562E1,3.685633E1,2.477929E1,3.0892895E1,5.963438E0,2.5499804E0,2.222931E1,2.5579945E1,5.312949E0,1.2913587E0,4.6720796E0,1.3023866E0,1.2475936E0,1.0187266E0,2.1210583E1],"tree_param":{"num_deleted":"0","num_feature":"30","num_nodes":"15","size_leaf_vector":"1"}},{"base_weights":[2.140746E-3,9.168402E-1,-7.739578E-1,9.904925E-1,-1.9709548E-2,6.0030174E-1,-9.476675E-1,1.0508269E-1,-2.5644785E-2,8.51501E-2,-3.952349E-3,1.4952786E-2,-1.0834738E-1],"categories":[],"categories_nodes":[],"categories_segments":[],"categories_sizes":[],"default_left":[0,0,0,0,0,0,0,0,0,0,0,0,0],"id":13,"left_children":[1,3,5,7,-1,9,11,-1,-1,-1,-1,-1,-1],"loss_changes":[4.246432E1,2.4478207E0,8.29442E0,2.2194672E0,0E0,7.157322E-1,4.500799E0,0E0,0E0,0E0,0E0,0E0,0E0],"parents":[2147483647,0,0,1,1,2,2,3,3,5,5,6,6],"right_children":[2,4,6,8,-1,10,12,-1,-1,-1,-1,-1,-1],"split_conditions":[1.017E2,5.669E-2,2.085E-1,4.009E1,-1.9709548E-2,1.931E1,1.962E1,1.0508269E-1,-2.5644785E-2,8.51501E-2,-3.952349E-3,1.4952786E-2,-1.0834738E-1],"split_indices":[22,7,26,13,0,1,21,0,0,0,0,0,0],"split_type":[0,0,0,0,0,0,0,0,0,0,0,0,0],"sum_hessian":[5.7818012E1,2.6455988E1,3.1362022E1,2.4919174E1,1.5368152E0,3.2437956E0,2.8118227E1,2.3919102E1,1.0000725E0,2.0917344E0,1.1520611E0,3.0858932E0,2.5032335E1],"tree_param":{"num_deleted":"0","num_feature":"30","num_nodes":"13","size_leaf_vector":"1"}},{"base_weights":[3.4136856E-3,6.8038905E-1,-9.8773766E-1,9.128522E-1,-4.1880515E-1,5.960995E-2,-1.114665E0,1.0420972E-1,2.617749E-2,6.722702E-2,-7.916214E-2,8.4887564E-2,-7.784977E-2,-4.3453928E-2,-1.1636098E-1],"categories":[],"categories_nodes":[],"categories_segments":[],"categories_sizes":[],"default_left":[0,0,0,0,0,0,0,0,0,0,0,0,0,0,0],"id":14,"left_children":[1,3,5,7,9,11,13,-1,-1,-1,-1,-1,-1,-1,-1],"loss_changes":[3.7874313E1,8.951361E0,3.1118736E0,2.083006E0,3.1923325E0,2.9267473E0,1.7622757E-1,0E0,0E0,0E0,0E0,0E0,0E0,0E0,0E0],"parents":[2147483647,0,0,1,1,2,2,3,3,4,4,5,5,6,6],"right_children":[2,4,6,8,10,12,14,-1,-1,-1,-1,-1,-1,-1,-1],"split_conditions":[1.424E-1,1.684E1,1.534E1,2.158E1,1.616E1,1.074E-1,2.506E1,1.0420972E-1,2.617749E-2,6.722702E-2,-7.916214E-2,8.4887564E-2,-7.784977E-2,-4.3453928E-2,-1.1636098E-1],"split_indices":[27,20,20,1,1,4,13,0,0,0,0,0,0,0,0],"split_type":[0,0,0,0,0,0,0,0,0,0,0,0,0,0,0],"sum_hessian":[5.4444256E1,3.2535454E1,2.1908802E1,2.6995775E1,5.539678E0,2.4254496E0,1.9483353E1,2.202336E1,4.972416E0,1.2062562E0,4.3334217E0,1.2425053E0,1.1829444E0,1.9711283E0,1.7512224E1],"tree_param":{"num_deleted":"0","num_feature":"30","num_nodes":"15","size_leaf_vector":"1"}},{"base_weights":[2.8276055E-3,7.4979836E-1,-8.449668E-1,9.427368E-1,7.2893426E-3,-1.2972271E-1,-1.1242781E-1,1.0202781E-1,-4.745697E-3,8.237622E-2,-6.999146E-2,7.660241E-2,-8.9734145E-2],"categories":[],"categories_nodes":[],"categories_segments":[],"categories_sizes":[],"default_left":[0,0,0,0,0,0,0,0,0,0,0,0,0],"id":15,"left_children":[1,3,5,7,9,11,-1,-1,-1,-1,-1,-1,-1],"loss_changes":[3.359152E1,4.032546E0,4.817934E0,1.7662582E0,4.5165014E0,6.262659E0,0E0,0E0,0E0,0E0,0E0,0E0,0E0],"parents":[2147483647,0,0,1,1,2,2,3,3,4,4,5,5],"right_children":[2,4,6,8,10,12,-1,-1,-1,-1,-1,-1,-1],"split_conditions":[5.074E-2,2.158E1,1.146E2,9.67E2,1.438E1,2.548E1,-1.1242781E-1,1.0202781E-1,-4.745697E-3,8.237622E-2,-6.999146E-2,7.660241E-2,-8.9734145E-2],"split_indices":[7,1,22,23,20,21,0,0,0,0,0,0,0],"split_type":[0,0,0,0,0,0,0,0,0,0,0,0,0],"sum_hessian":[5.104346E1,2.7196703E1,2.3846756E1,2.137327E1,5.823434E0,7.1084037E0,1.6738352E1,1.979292E1,1.5803508E0,2.626408E0,3.1970258E0,3.2813826E0,3.8270214E0],"tree_param":{"num_deleted":"0","num_feature":"30","num_nodes":"13","size_leaf_vector":"1"}},{"base_weights":[2.661104E-3,8.3238643E-1,-7.217817E-1,9.640446E-1,-2.4133354E-1,4.0170762E-1,-9.248013E-1,1.0363807E-2,1.0038195E-1,5.86694E-2,-8.6874254E-2,9.162411E-2,-4.960186E-2,1.0421417E-2,-1.06368996E-1],"categories":[],"categories_nodes":[],"categories_segments":[],"categories_sizes":[],"default_left":[0,0,0,0,0,0,0,0,0,0,0,0,0,0,0],"id":16,"left_children":[1,3,5,7,9,11,13,-1,-1,-1,-1,-1,-1,-1,-1],"loss_changes":[2.995733E1,3.5164928E0,6.4408207E0,6.109657E-1,2.243328E0,2.6576312E0,3.3750572E0,0E0,0E0,0E0,0E0,0E0,0E0,0E0,0E0],"parents":[2147483647,0,0,1,1,2,2,3,3,4,4,5,5,6,6],"right_children":[2,4,6,8,10,12,14,-1,-1,-1,-1,-1,-1,-1,-1],"split_conditions":[1.112E-1,1.499E1,7.259E2,1.988E-1,1.954E1,1.084E-1,1.962E1,1.0363807E-2,1.0038195E-1,5.86694E-2,-8.6874254E-2,9.162411E-2,-4.960186E-2,1.0421417E-2,-1.06368996E-1],"split_indices":[27,0,23,28,1,4,21,0,0,0,0,0,0,0,0],"split_type":[0,0,0,0,0,0,0,0,0,0,0,0,0,0,0],"sum_hessian":[4.7838943E1,2.2229662E1,2.5609282E1,1.9892603E1,2.3370588E0,3.7696683E0,2.1839613E1,1.0382805E0,1.8854322E1,1.0354327E0,1.301626E0,2.3831418E0,1.3865265E0,2.626884E0,1.9212729E1],"tree_param":{"num_deleted":"0","num_feature":"30","num_nodes":"15","size_leaf_vector":"1"}},{"base_weights":[3.4728828E-3,5.551507E-1,-1.0284945E0,7.9330677E-1,-4.5607364E-1,-1.1288642E-2,-1.0853656E-1,1.017046E-1,8.292873E-3,2.3848822E-2,-9.2621885E-2],"categories":[],"categories_nodes":[],"categories_segments":[],"categories_sizes":[],"default_left":[0,0,0,0,0,0,0,0,0,0,0],"id":17,"left_children":[1,3,5,7,9,-1,-1,-1,-1,-1,-1],"loss_changes":[2.6721624E1,7.7267704E0,7.289505E-1,3.9077816E0,2.3318157E0,0E0,0E0,0E0,0E0,0E0,0E0],"parents":[2147483647,0,0,1,1,2,2,3,3,4,4],"right_children":[2,4,6,8,10,-1,-1,-1,-1,-1,-1],"split_conditions":[1.515E-1,8.765E2,1.497E1,2.135E1,1.954E1,-1.1288642E-2,-1.0853656E-1,1.017046E-1,8.292873E-3,2.3848822E-2,-9.2621885E-2],"split_indices":[27,23,20,1,1,0,0,0,0,0,0],"split_type":[0,0,0,0,0,0,0,0,0,0,0],"sum_hessian":[4.4933666E1,2.9581686E1,1.535198E1,2.4117264E1,5.4644217E0,1.0723524E0,1.4279628E1,1.8012413E1,6.104851E0,2.4046633E0,3.0597584E0],"tree_param":{"num_deleted":"0","num_feature":"30","num_nodes":"11","size_leaf_vector":"1"}},{"base_weights":[1.5900624E-3,6.847093E-1,-7.835361E-1,8.7574476E-1,-5.3167794E-2,-8.710958E-2,-1.04965664E-1,9.6286386E-2,-2.7664358E-2,7.5428806E-2,-7.1702555E-2,6.345412E-2,-7.6898806E-2],"categories":[],"categories_nodes":[],"categories_segments":[],"categories_sizes":[],"default_left":[0,0,0,0,0,0,0,0,0,0,0,0,0],"id":18,"left_children":[1,3,5,7,9,11,-1,-1,-1,-1,-1,-1,-1],"loss_changes":[2.3720795E1,3.3801289E0,3.7224264E0,2.1580772E0,3.6532176E0,3.8242018E0,0E0,0E0,0E0,0E0,0E0,0E0,0E0],"parents":[2147483647,0,0,1,1,2,2,3,3,4,4,5,5],"right_children":[2,4,6,8,10,12,-1,-1,-1,-1,-1,-1,-1],"split_conditions":[5.074E-2,2.987E1,1.515E-1,2.105E0,1.438E1,1.998E1,-1.04965664E-1,9.6286386E-2,-2.7664358E-2,7.5428806E-2,-7.1702555E-2,6.345412E-2,-7.6898806E-2],"split_indices":[7,21,27,11,20,1,0,0,0,0,0,0,0],"split_type":[0,0,0,0,0,0,0,0,0,0,0,0,0],"sum_hessian":[4.2227287E1,2.2648914E1,1.9578373E1,1.7842636E1,4.806279E0,5.779913E0,1.3798461E1,1.6741465E1,1.1011709E0,2.107134E0,2.6991448E0,2.8417902E0,2.9381227E0],"tree_param":{"num_deleted":"0","num_feature":"30","num_nodes":"13","size_leaf_vector":"1"}},{"base_weights":[5.359588E-4,7.7090627E-1,-6.570841E-1,8.89479E-1,-4.0553335E-2,-8.129124E-2,-1.0537539E-1,1.006725E-1,1.6572302E-2,6.3519366E-2,-7.9357795E-2],"categories":[],"categories_nodes":[],"categories_segments":[],"categories_sizes":[],"default_left":[0,0,0,0,0,0,0,0,0,0,0],"id":19,"left_children":[1,3,5,7,-1,9,-1,-1,-1,-1,-1],"loss_changes":[2.1161835E1,3.044054E0,5.06137E0,1.3426199E0,0E0,5.748231E0,0E0,0E0,0E0,0E0,0E0],"parents":[2147483647,0,0,1,1,2,2,3,3,5,5],"right_children":[2,4,6,8,-1,10,-1,-1,-1,-1,-1],"split_conditions":[1.112E-1,4.855E1,1.162E2,3.137E1,-4.0553335E-2,2.737E1,-1.0537539E-1,1.006725E-1,1.6572302E-2,6.3519366E-2,-7.9357795E-2],"split_indices":[27,13,22,21,0,21,0,0,0,0,0],"split_type":[0,0,0,0,0,0,0,0,0,0,0],"sum_hessian":[3.977149E1,1.8236288E1,2.1535202E1,1.6788143E1,1.448145E0,9.275755E0,1.2259447E1,1.4111203E1,2.6769395E0,4.6782074E0,4.5975475E0],"tree_param":{"num_deleted":"0","num_feature":"30","num_nodes":"11","size_leaf_vector":"1"}},{"base_weights":[-4.9164257E-4,5.603257E-1,-8.478278E-1,7.2045213E-1,-7.570815E-2,3.121524E-2,-9.9790376E-1,9.269057E-2,-5.193911E-3,-2.1093106E-2,-1.04617976E-1],"categories":[],"categories_nodes":[],"categories_segments":[],"categories_sizes":[],"default_left":[0,0,0,0,0,0,0,0,0,0,0],"id":20,"left_children":[1,3,5,7,-1,-1,9,-1,-1,-1,-1],"loss_changes":[1.8749462E1,5.5539675E0,3.0470085E0,3.5055952E0,0E0,0E0,3.1698418E-1,0E0,0E0,0E0,0E0],"parents":[2147483647,0,0,1,1,2,2,3,3,6,6],"right_children":[2,4,6,8,-1,-1,10,-1,-1,-1,-1],"split_conditions":[8.693E2,1.583E-1,2.177E-1,3.012E1,-7.570815E-2,3.121524E-2,1.511E1,9.269057E-2,-5.193911E-3,-2.1093106E-2,-1.04617976E-1],"split_indices":[23,27,26,21,0,0,1,0,0,0,0],"split_type":[0,0,0,0,0,0,0,0,0,0,0],"sum_hessian":[3.745617E1,2.2742533E1,1.4713636E1,2.0681852E1,2.0606806E0,1.5618314E0,1.3151806E1,1.6161873E1,4.5199785E0,1.0704889E0,1.2081316E1],"tree_param":{"num_deleted":"0","num_feature":"30","num_nodes":"11","size_leaf_vector":"1"}},{"base_weights":[-2.7408223E-3,4.721453E-1,-9.504108E-1,7.117476E-1,-4.2568755E-1,-1.5561632E-2,-1.0130072E-1,9.505216E-2,-5.140735E-3,2.3597373E-2,-9.3194224E-2],"categories":[],"categories_nodes":[],"categories_segments":[],"categories_sizes":[],"default_left":[0,0,0,0,0,0,0,0,0,0,0],"id":21,"left_children":[1,3,5,7,9,-1,-1,-1,-1,-1,-1],"loss_changes":[1.6768415E1,5.6435456E0,4.6113873E-1,3.687892E0,2.1812606E0,0E0,0E0,0E0,0E0,0E0,0E0],"parents":[2147483647,0,0,1,1,2,2,3,3,4,4],"right_children":[2,4,6,8,10,-1,-1,-1,-1,-1,-1],"split_conditions":[1.515E-1,6.988E2,1.505E1,2.987E1,1.954E1,-1.5561632E-2,-1.0130072E-1,9.505216E-2,-5.140735E-3,2.3597373E-2,-9.3194224E-2],"split_indices":[27,3,20,21,1,0,0,0,0,0,0],"split_type":[0,0,0,0,0,0,0,0,0,0,0],"sum_hessian":[3.526312E1,2.3825651E1,1.14374695E1,1.8970345E1,4.8553057E0,1.0895342E0,1.0347936E1,1.4262434E1,4.7079105E0,2.3360431E0,2.5192626E0],"tree_param":{"num_deleted":"0","num_feature":"30","num_nodes":"11","size_leaf_vector":"1"}},{"base_weights":[-5.333166E-3,7.0595896E-1,-6.064208E-1,8.3874017E-1,-4.3180365E-2,3.3380038E-1,-8.0796707E-1,9.70461E-2,1.7112054E-2,7.952131E-2,-4.299775E-2,1.2363853E-2,-9.5414825E-2],"categories":[],"categories_nodes":[],"categories_segments":[],"categories_sizes":[],"default_left":[0,0,0,0,0,0,0,0,0,0,0,0,0],"id":22,"left_children":[1,3,5,7,-1,9,11,-1,-1,-1,-1,-1,-1],"loss_changes":[1.5063399E1,2.8005276E0,3.8873115E0,1.1348476E0,0E0,1.7789123E0,2.298667E0,0E0,0E0,0E0,0E0,0E0,0E0],"parents":[2147483647,0,0,1,1,2,2,3,3,5,5,6,6],"right_children":[2,4,6,8,-1,10,12,-1,-1,-1,-1,-1,-1],"split_conditions":[1.112E-1,4.855E1,7.259E2,3.137E1,-4.3180365E-2,1.084E-1,1.962E1,9.70461E-2,1.7112054E-2,7.952131E-2,-4.299775E-2,1.2363853E-2,-9.5414825E-2],"split_indices":[27,13,23,21,0,4,21,0,0,0,0,0,0],"split_type":[0,0,0,0,0,0,0,0,0,0,0,0,0],"sum_hessian":[3.323069E1,1.5140195E1,1.8090494E1,1.37932825E1,1.3469121E0,3.077525E0,1.5012969E1,1.1141465E1,2.651817E0,1.8928567E0,1.1846682E0,2.0571375E0,1.2955832E1],"tree_param":{"num_deleted":"0","num_feature":"30","num_nodes":"13","size_leaf_vector":"1"}},{"base_weights":[-4.048061E-3,4.3945187E-1,-9.179718E-1,6.846342E-1,-3.8189456E-1,-1.5383936E-2,-9.83532E-2,8.9520596E-2,-1.7668288E-3,3.2206163E-2,-7.493632E-2],"categories":[],"categories_nodes":[],"categories_segments":[],"categories_sizes":[],"default_left":[0,0,0,0,0,0,0,0,0,0,0],"id":23,"left_children":[1,3,5,7,9,-1,-1,-1,-1,-1,-1],"loss_changes":[1.35474825E1,4.794443E0,3.9568996E-1,2.632349E0,1.7459975E0,0E0,0E0,0E0,0E0,0E0,0E0],"parents":[2147483647,0,0,1,1,2,2,3,3,4,4],"right_children":[2,4,6,8,10,-1,-1,-1,-1,-1,-1],"split_conditions":[1.515E-1,3.444E1,1.505E1,3.012E1,1.048E-1,-1.5383936E-2,-9.83532E-2,8.9520596E-2,-1.7668288E-3,3.2206163E-2,-7.493632E-2],"split_indices":[27,13,20,21,24,0,0,0,0,0,0],"split_type":[0,0,0,0,0,0,0,0,0,0,0],"sum_hessian":[3.142848E1,2.150965E1,9.918832E0,1.669302E1,4.8166294E0,1.0481945E0,8.870637E0,1.2631145E1,4.0618753E0,1.6943488E0,3.1222804E0],"tree_param":{"num_deleted":"0","num_feature":"30","num_nodes":"11","size_leaf_vector":"1"}},{"base_weights":[-6.05054E-3,4.8271236E-1,-7.8377295E-1,6.3661677E-1,-6.803138E-2,2.6101205E-2,-9.3974876E-1,9.064876E-2,2.9110597E-3,-2.2414355E-2,-9.895938E-2],"categories":[],"categories_nodes":[],"categories_segments":[],"categories_sizes":[],"default_left":[0,0,0,0,0,0,0,0,0,0,0],"id":24,"left_children":[1,3,5,7,-1,-1,9,-1,-1,-1,-1],"loss_changes":[1.2086918E1,3.9295564E0,2.2445498E0,2.8865738E0,0E0,0E0,1.6670227E-1,0E0,0E0,0E0,0E0],"parents":[2147483647,0,0,1,1,2,2,3,3,6,6],"right_children":[2,4,6,8,-1,-1,10,-1,-1,-1,-1],"split_conditions":[8.765E2,1.583E-1,2.177E-1,2.135E1,-6.803138E-2,2.6101205E-2,2.56E-1,9.064876E-2,2.9110597E-3,-2.2414355E-2,-9.895938E-2],"split_indices":[23,27,26,1,0,0,10,0,0,0,0],"split_type":[0,0,0,0,0,0,0,0,0,0,0],"sum_hessian":[2.9802176E1,1.8533836E1,1.1268341E1,1.6767584E1,1.7662511E0,1.3762546E0,9.892086E0,1.1269305E1,5.498279E0,1.0021023E0,8.889984E0],"tree_param":{"num_deleted":"0","num_feature":"30","num_nodes":"11","size_leaf_vector":"1"}},{"base_weights":[-8.1278635E-3,5.341189E-1,-6.766214E-1,7.076401E-1,-2.7137312E-1,-1.2098321E-1,-9.5786296E-2,-4.8723444E-2,8.378792E-2,3.7841167E-2,-8.254957E-2,6.019313E-2,-7.250039E-2],"categories":[],"categories_nodes":[],"categories_segments":[],"categories_sizes":[],"default_left":[0,0,0,0,0,0,0,0,0,0,0,0,0],"id":25,"left_children":[1,3,5,7,9,11,-1,-1,-1,-1,-1,-1,-1],"loss_changes":[1.09388685E1,2.5220385E0,1.9952846E0,2.5857954E0,1.6364869E0,2.9186547E0,0E0,0E0,0E0,0E0,0E0,0E0,0E0],"parents":[2147483647,0,0,1,1,2,2,3,3,4,4,5,5],"right_children":[2,4,6,8,10,12,-1,-1,-1,-1,-1,-1,-1],"split_conditions":[5.074E-2,3.444E1,1.146E2,3.338E-3,8.76E-2,2.548E1,-9.5786296E-2,-4.8723444E-2,8.378792E-2,3.7841167E-2,-8.254957E-2,6.019313E-2,-7.250039E-2],"split_indices":[7,13,22,14,4,21,0,0,0,0,0,0,0],"split_type":[0,0,0,0,0,0,0,0,0,0,0,0,0],"sum_hessian":[2.8180164E1,1.5670275E1,1.250989E1,1.2992809E1,2.677465E0,4.6846943E0,7.8251953E0,1.0075934E0,1.1985216E1,1.3783077E0,1.2991573E0,2.134047E0,2.5506475E0],"tree_param":{"num_deleted":"0","num_feature":"30","num_nodes":"13","size_leaf_vector":"1"}},{"base_weights":[-1.1929577E-2,7.303212E-1,-4.8172745E-1,9.49842E-2,-2.9056048E-2,4.6630698E-1,-6.9996566E-1,6.875806E-2,-8.167796E-3,1.7298106E-2,-8.401359E-2],"categories":[],"categories_nodes":[],"categories_segments":[],"categories_sizes":[],"default_left":[0,0,0,0,0,0,0,0,0,0,0],"id":26,"left_children":[1,3,5,-1,-1,7,9,-1,-1,-1,-1],"loss_changes":[9.975132E0,2.762261E0,3.9476871E0,0E0,0E0,5.260681E-1,1.9351568E0,0E0,0E0,0E0,0E0],"parents":[2147483647,0,0,1,1,2,2,5,5,6,6],"right_children":[2,4,6,-1,-1,8,10,-1,-1,-1,-1],"split_conditions":[2.085E-1,4.276E1,1.449E1,9.49842E-2,-2.9056048E-2,1.418E-1,1.971E1,6.875806E-2,-8.167796E-3,1.7298106E-2,-8.401359E-2],"split_indices":[26,13,20,0,0,27,21,0,0,0,0],"split_type":[0,0,0,0,0,0,0,0,0,0,0],"sum_hessian":[2.6597073E1,1.0094252E1,1.6502821E1,8.365088E0,1.7291634E0,2.8753805E0,1.36274395E1,1.8668226E0,1.0085578E0,1.8530438E0,1.1774396E1],"tree_param":{"num_deleted":"0","num_feature":"30","num_nodes":"11","size_leaf_vector":"1"}},{"base_weights":[-8.492146E-3,3.7654617E-1,-8.5463697E-1,6.035734E-1,-3.7580416E-1,-1.5514696E-2,-9.276974E-2,7.819351E-2,-3.7800293E-2,2.1791555E-2,-8.472887E-2],"categories":[],"categories_nodes":[],"categories_segments":[],"categories_sizes":[],"default_left":[0,0,0,0,0,0,0,0,0,0,0],"id":27,"left_children":[1,3,5,7,9,-1,-1,-1,-1,-1,-1],"loss_changes":[8.877548E0,3.4280734E0,2.914152E-1,2.883429E0,1.5733334E0,0E0,0E0,0E0,0E0,0E0,0E0],"parents":[2147483647,0,0,1,1,2,2,3,3,4,4],"right_children":[2,4,6,8,10,-1,-1,-1,-1,-1,-1],"split_conditions":[1.515E-1,6.988E2,1.529E1,3.337E1,1.954E1,-1.5514696E-2,-9.276974E-2,7.819351E-2,-3.7800293E-2,2.1791555E-2,-8.472887E-2],"split_indices":[27,3,20,21,1,0,0,0,0,0,0],"split_type":[0,0,0,0,0,0,0,0,0,0,0],"sum_hessian":[2.5260853E1,1.7742233E1,7.5186195E0,1.3781358E1,3.9608757E0,1.006434E0,6.5121856E0,1.1834335E1,1.9470221E0,1.9912243E0,1.9696515E0],"tree_param":{"num_deleted":"0","num_feature":"30","num_nodes":"11","size_leaf_vector":"1"}},{"base_weights":[-1.3298956E-2,6.9689006E-1,-4.5267922E-1,9.281901E-2,-2.7440146E-2,-1.9741278E-2,-9.444129E-2,6.109309E-2,-7.1490034E-2],"categories":[],"categories_nodes":[],"categories_segments":[],"categories_sizes":[],"default_left":[0,0,0,0,0,0,0,0,0],"id":28,"left_children":[1,3,5,-1,-1,7,-1,-1,-1],"loss_changes":[8.1047535E0,2.4866161E0,3.3934648E0,0E0,0E0,4.6213117E0,0E0,0E0,0E0],"parents":[2147483647,0,0,1,1,2,2,5,5],"right_children":[2,4,6,-1,-1,8,-1,-1,-1],"split_conditions":[2.085E-1,4.276E1,9.67E2,9.281901E-2,-2.7440146E-2,2.737E1,-9.444129E-2,6.109309E-2,-7.1490034E-2],"split_indices":[26,13,23,0,0,21,0,0,0],"split_type":[0,0,0,0,0,0,0,0,0],"sum_hessian":[2.3962217E1,8.934664E0,1.5027554E1,7.2520585E0,1.6826053E0,8.544686E0,6.482867E0,4.543674E0,4.001013E0],"tree_param":{"num_deleted":"0","num_feature":"30","num_nodes":"9","size_leaf_vector":"1"}},{"base_weights":[-1.4039339E-2,3.451979E-1,-8.2423985E-1,6.9342697E-1,-1.24056436E-1,-9.0729825E-2,-2.2240303E-2,8.2659744E-2,-2.3774106E-2,6.770165E-2,-6.536367E-2],"categories":[],"categories_nodes":[],"categories_segments":[],"categories_sizes":[],"default_left":[0,0,0,0,0,0,0,0,0,0,0],"id":29,"left_children":[1,3,5,7,9,-1,-1,-1,-1,-1,-1],"loss_changes":[7.176592E0,2.881996E0,1.7658472E-1,1.4332714E0,3.8944464E0,0E0,0E0,0E0,0E0,0E0,0E0],"parents":[2147483647,0,0,1,1,2,2,3,3,4,4],"right_children":[2,4,6,8,10,-1,-1,-1,-1,-1,-1],"split_conditions":[1.515E-1,1.998E1,6.43E-2,4.953E-1,6.536E2,-9.0729825E-2,-2.2240303E-2,8.2659744E-2,-2.3774106E-2,6.770165E-2,-6.536367E-2],"split_indices":[27,1,16,10,23,0,0,0,0,0,0],"split_type":[0,0,0,0,0,0,0,0,0,0,0],"sum_hessian":[2.2679665E1,1.6110373E1,6.569291E0,8.973503E0,7.13687E0,5.3266253E0,1.2426659E0,7.948984E0,1.0245187E0,2.7295685E0,4.4073014E0],"tree_param":{"num_deleted":"0","num_feature":"30","num_nodes":"11","size_leaf_vector":"1"}},{"base_weights":[-1.5302956E-2,6.612731E-1,-4.258926E-1,9.05567E-2,-2.6020536E-2,-1.3614824E-2,-9.209863E-2,5.755928E-2,-6.490748E-2],"categories":[],"categories_nodes":[],"categories_segments":[],"categories_sizes":[],"default_left":[0,0,0,0,0,0,0,0,0],"id":30,"left_children":[1,3,5,-1,-1,7,-1,-1,-1],"loss_changes":[6.568926E0,2.2480154E0,2.9866123E0,0E0,0E0,3.7554257E0,0E0,0E0,0E0],"parents":[2147483647,0,0,1,1,2,2,5,5],"right_children":[2,4,6,-1,-1,8,-1,-1,-1],"split_conditions":[2.085E-1,4.276E1,9.67E2,9.05567E-2,-2.6020536E-2,2.737E1,-9.209863E-2,5.755928E-2,-6.490748E-2],"split_indices":[26,13,23,0,0,21,0,0,0],"split_type":[0,0,0,0,0,0,0,0,0],"sum_hessian":[2.1632847E1,7.939488E0,1.3693358E1,6.289374E0,1.6501139E0,8.032216E0,5.661142E0,4.2166696E0,3.8155465E0],"tree_param":{"num_deleted":"0","num_feature":"30","num_nodes":"9","size_leaf_vector":"1"}},{"base_weights":[-1.5871486E-2,2.9465818E-1,-8.6553805E-2,5.254174E-1,-3.8933367E-1,8.080786E-2,-8.544777E-3,1.5879773E-2,-7.967398E-2],"categories":[],"categories_nodes":[],"categories_segments":[],"categories_sizes":[],"default_left":[0,0,0,0,0,0,0,0,0],"id":31,"left_children":[1,3,-1,5,7,-1,-1,-1,-1],"loss_changes":[5.9366164E0,2.8114257E0,0E0,2.2749348E0,1.1852019E0,0E0,0E0,0E0,0E0],"parents":[2147483647,0,0,1,1,3,3,4,4],"right_children":[2,4,-1,6,8,-1,-1,-1,-1],"split_conditions":[1.583E-1,6.988E2,-8.6553805E-2,2.987E1,1.954E1,8.080786E-2,-8.544777E-3,1.5879773E-2,-7.967398E-2],"split_indices":[27,3,0,21,1,0,0,0,0],"split_type":[0,0,0,0,0,0,0,0,0],"sum_hessian":[2.053364E1,1.55161295E1,5.01751E0,1.1775313E1,3.7408156E0,7.8295565E0,3.9457574E0,1.8551229E0,1.8856926E0],"tree_param":{"num_deleted":"0","num_feature":"30","num_nodes":"9","size_leaf_vector":"1"}},{"base_weights":[-1.8685788E-2,6.300458E-1,-4.075476E-1,8.839827E-2,-2.4267506E-2,-2.3301037E-2,-8.941983E-2,5.361733E-2,-5.9851985E-2],"categories":[],"categories_nodes":[],"categories_segments":[],"categories_sizes":[],"default_left":[0,0,0,0,0,0,0,0,0],"id":32,"left_children":[1,3,5,-1,-1,7,-1,-1,-1],"loss_changes":[5.4454036E0,2.0098574E0,2.4973917E0,0E0,0E0,3.0731018E0,0E0,0E0,0E0],"parents":[2147483647,0,0,1,1,2,2,5,5],"right_children":[2,4,6,-1,-1,8,-1,-1,-1],"split_conditions":[2.085E-1,4.276E1,9.67E2,8.839827E-2,-2.4267506E-2,2.737E1,-8.941983E-2,5.361733E-2,-5.9851985E-2],"split_indices":[26,13,23,0,0,21,0,0,0],"split_type":[0,0,0,0,0,0,0,0,0],"sum_hessian":[1.9568016E1,7.1011157E0,1.2466901E1,5.4906025E0,1.6105133E0,7.5519557E0,4.914945E0,3.8627822E0,3.6891735E0],"tree_param":{"num_deleted":"0","num_feature":"30","num_nodes":"9","size_leaf_vector":"1"}},{"base_weights":[-1.9012077E-2,3.670321E-1,-6.362791E-1,-3.19295E-1,6.447553E-1,-1.1190348E-2,-8.5299246E-2,6.118035E-2,-9.91819E-2,8.297561E-2,-2.410579E-2,3.1048184E-2,-3.282548E-2],"categories":[],"categories_nodes":[],"categories_segments":[],"categories_sizes":[],"default_left":[0,0,0,0,0,0,0,0,0,0,0,0,0],"id":33,"left_children":[1,3,5,7,9,11,-1,-1,-1,-1,-1,-1,-1],"loss_changes":[4.911169E0,2.6287022E0,1.0631733E0,3.31855E0,1.7372494E0,4.131833E-1,0E0,0E0,0E0,0E0,0E0,0E0,0E0],"parents":[2147483647,0,0,1,1,2,2,3,3,4,4,5,5],"right_children":[2,4,6,8,10,12,-1,-1,-1,-1,-1,-1,-1],"split_conditions":[5.596E-2,1.203E-2,2.384E1,1.246E-2,3.215E-1,6.748E2,-8.5299246E-2,6.118035E-2,-9.91819E-2,8.297561E-2,-2.410579E-2,3.1048184E-2,-3.282548E-2],"split_indices":[7,15,21,16,28,3,0,0,0,0,0,0,0],"split_type":[0,0,0,0,0,0,0,0,0,0,0,0,0],"sum_hessian":[1.862981E1,1.1711025E1,6.9187856E0,3.3305848E0,8.380441E0,2.0519035E0,4.8668823E0,1.4346386E0,1.8959463E0,6.984931E0,1.3955095E0,1.0288564E0,1.0230471E0],"tree_param":{"num_deleted":"0","num_feature":"30","num_nodes":"13","size_leaf_vector":"1"}},{"base_weights":[-2.107582E-2,5.9794635E-1,-3.8801807E-1,8.6085856E-2,-2.2786772E-2,3.985304E-1,-5.939668E-1,5.6805223E-2,1.6962022E-3,2.431464E-2,-7.1286045E-2],"categories":[],"categories_nodes":[],"categories_segments":[],"categories_sizes":[],"default_left":[0,0,0,0,0,0,0,0,0,0,0],"id":34,"left_children":[1,3,5,-1,-1,7,9,-1,-1,-1,-1],"loss_changes":[4.508823E0,1.8030131E0,2.2498503E0,0E0,0E0,1.9588315E-1,1.1935241E0,0E0,0E0,0E0,0E0],"parents":[2147483647,0,0,1,1,2,2,5,5,6,6],"right_children":[2,4,6,-1,-1,8,10,-1,-1,-1,-1],"split_conditions":[2.085E-1,4.276E1,1.449E1,8.6085856E-2,-2.2786772E-2,1.008E-1,1.084E-1,5.6805223E-2,1.6962022E-3,2.431464E-2,-7.1286045E-2],"split_indices":[26,13,20,0,0,4,24,0,0,0,0],"split_type":[0,0,0,0,0,0,0,0,0,0,0],"sum_hessian":[1.7828508E1,6.4008694E0,1.142764E1,4.82296E0,1.5779092E0,2.1772616E0,9.250378E0,1.1691196E0,1.0081421E0,1.0204514E0,8.229926E0],"tree_param":{"num_deleted":"0","num_feature":"30","num_nodes":"11","size_leaf_vector":"1"}},{"base_weights":[-1.5121865E-2,2.59759E-1,-8.090661E-2,5.908865E-1,-1.66932E-1,7.4975364E-2,-1.14097465E-2,5.9361726E-2,-6.0292818E-2],"categories":[],"categories_nodes":[],"categories_segments":[],"categories_sizes":[],"default_left":[0,0,0,0,0,0,0,0,0],"id":35,"left_children":[1,3,-1,5,7,-1,-1,-1,-1],"loss_changes":[4.1665745E0,2.10824E0,0E0,1.0071554E0,2.6772876E0,0E0,0E0,0E0,0E0],"parents":[2147483647,0,0,1,1,3,3,4,4],"right_children":[2,4,-1,6,8,-1,-1,-1,-1],"split_conditions":[1.583E-1,2.02E1,-8.090661E-2,9.67E2,6.536E2,7.4975364E-2,-1.14097465E-2,5.9361726E-2,-6.0292818E-2],"split_indices":[27,1,0,23,23,0,0,0,0],"split_type":[0,0,0,0,0,0,0,0,0],"sum_hessian":[1.7128716E1,1.3223333E1,3.905383E0,7.228752E0,5.9945807E0,5.8475175E0,1.3812345E0,2.05257E0,3.9420109E0],"tree_param":{"num_deleted":"0","num_feature":"30","num_nodes":"9","size_leaf_vector":"1"}},{"base_weights":[-1.50058335E-2,2.4792424E-1,-7.889723E-2,-3.6426595E-1,4.60358E-1,5.616364E-2,-9.348712E-2,7.029889E-2,-2.4709195E-2],"categories":[],"categories_nodes":[],"categories_segments":[],"categories_sizes":[],"default_left":[0,0,0,0,0,0,0,0,0],"id":36,"left_children":[1,3,-1,5,7,-1,-1,-1,-1],"loss_changes":[3.730166E0,1.9526944E0,0E0,2.68809E0,1.9985707E0,0E0,0E0,0E0,0E0],"parents":[2147483647,0,0,1,1,3,3,4,4],"right_children":[2,4,-1,6,8,-1,-1,-1,-1],"split_conditions":[1.583E-1,1.203E-2,-7.889723E-2,1.246E-2,8.765E2,5.616364E-2,-9.348712E-2,7.029889E-2,-2.4709195E-2],"split_indices":[27,15,0,16,23,0,0,0,0],"split_type":[0,0,0,0,0,0,0,0,0],"sum_hessian":[1.6368929E1,1.2725516E1,3.643412E0,3.094134E0,9.631382E0,1.1857594E0,1.9083747E0,7.176423E0,2.4549592E0],"tree_param":{"num_deleted":"0","num_feature":"30","num_nodes":"9","size_leaf_vector":"1"}},{"base_weights":[-1.7986929E-2,5.619494E-1,-3.5739934E-1,8.3129264E-2,-2.0414319E-2,-2.012382E-2,-8.319511E-2,5.0289135E-2,-5.363827E-2],"categories":[],"categories_nodes":[],"categories_segments":[],"categories_sizes":[],"default_left":[0,0,0,0,0,0,0,0,0],"id":37,"left_children":[1,3,5,-1,-1,7,-1,-1,-1],"loss_changes":[3.4967139E0,1.5254679E0,1.7716521E0,0E0,0E0,2.3100324E0,0E0,0E0,0E0],"parents":[2147483647,0,0,1,1,2,2,5,5],"right_children":[2,4,6,-1,-1,8,-1,-1,-1],"split_conditions":[2.085E-1,4.276E1,9.67E2,8.3129264E-2,-2.0414319E-2,2.737E1,-8.319511E-2,5.0289135E-2,-5.363827E-2],"split_indices":[26,13,23,0,0,21,0,0,0],"split_type":[0,0,0,0,0,0,0,0,0],"sum_hessian":[1.5744125E1,5.5704813E0,1.0173644E1,4.0584884E0,1.5119927E0,6.5563164E0,3.6173282E0,3.269709E0,3.2866073E0],"tree_param":{"num_deleted":"0","num_feature":"30","num_nodes":"9","size_leaf_vector":"1"}},{"base_weights":[-1.8144447E-2,3.5108045E-1,-5.3220254E-1,-3.5116866E-1,6.794822E-1,6.003241E-3,-7.4265815E-2,5.2910686E-2,-8.731412E-2,8.559423E-2,-1.7517196E-2],"categories":[],"categories_nodes":[],"categories_segments":[],"categories_sizes":[],"default_left":[0,0,0,0,0,0,0,0,0,0,0],"id":38,"left_children":[1,3,5,7,9,-1,-1,-1,-1,-1,-1],"loss_changes":[3.237363E0,2.5347128E0,9.314914E-1,2.2225616E0,1.2244043E0,0E0,0E0,0E0,0E0,0E0,0E0],"parents":[2147483647,0,0,1,1,2,2,3,3,4,4],"right_children":[2,4,6,8,10,-1,-1,-1,-1,-1,-1],"split_conditions":[5.074E-2,1.203E-2,2.384E1,1.246E-2,3.215E-1,6.003241E-3,-7.4265815E-2,5.2910686E-2,-8.731412E-2,8.559423E-2,-1.7517196E-2],"split_indices":[7,15,21,16,28,0,0,0,0,0,0],"split_type":[0,0,0,0,0,0,0,0,0,0,0],"sum_hessian":[1.5072014E1,8.95621E0,6.1158032E0,2.8316753E0,6.124535E0,1.7908875E0,4.324916E0,1.0489744E0,1.782701E0,5.075162E0,1.0493731E0],"tree_param":{"num_deleted":"0","num_feature":"30","num_nodes":"11","size_leaf_vector":"1"}},{"base_weights":[-1.872082E-2,5.3254044E-1,-3.3736038E-1,8.0754586E-2,-1.9334469E-2,-1.7259594E-2,-8.064057E-2,4.7384188E-2,-4.9955036E-2],"categories":[],"categories_nodes":[],"categories_segments":[],"categories_sizes":[],"default_left":[0,0,0,0,0,0,0,0,0],"id":39,"left_children":[1,3,5,-1,-1,7,-1,-1,-1],"loss_changes":[2.9033508E0,1.3673606E0,1.55333E0,0E0,0E0,1.948256E0,0E0,0E0,0E0],"parents":[2147483647,0,0,1,1,2,2,5,5],"right_children":[2,4,6,-1,-1,8,-1,-1,-1],"split_conditions":[2.085E-1,4.276E1,9.67E2,8.0754586E-2,-1.9334469E-2,2.737E1,-8.064057E-2,4.7384188E-2,-4.9955036E-2],"split_indices":[26,13,23,0,0,21,0,0,0],"split_type":[0,0,0,0,0,0,0,0,0],"sum_hessian":[1.4506042E1,5.067587E0,9.438455E0,3.5936248E0,1.4739621E0,6.226183E0,3.212272E0,3.0935931E0,3.13259E0],"tree_param":{"num_deleted":"0","num_feature":"30","num_nodes":"9","size_leaf_vector":"1"}},{"base_weights":[-1.878021E-2,2.1903235E-1,-7.3850475E-2,-3.649329E-1,4.3339756E-1,4.097715E-2,-8.233393E-2,7.909181E-2,-2.583852E-3],"categories":[],"categories_nodes":[],"categories_segments":[],"categories_sizes":[],"default_left":[0,0,0,0,0,0,0,0,0],"id":40,"left_children":[1,3,-1,5,7,-1,-1,-1,-1],"loss_changes":[2.7162476E0,1.6589931E0,0E0,1.6734445E0,1.5353882E0,0E0,0E0,0E0,0E0],"parents":[2147483647,0,0,1,1,3,3,4,4],"right_children":[2,4,-1,6,8,-1,-1,-1,-1],"split_conditions":[1.583E-1,1.203E-2,-7.3850475E-2,1.272E-2,4.079E-2,4.097715E-2,-8.233393E-2,7.909181E-2,-2.583852E-3],"split_indices":[27,15,0,16,7,0,0,0,0],"split_type":[0,0,0,0,0,0,0,0,0],"sum_hessian":[1.3924619E1,1.0989216E1,2.9354026E0,2.762187E0,8.227029E0,1.0662782E0,1.6959089E0,4.2196984E0,4.007331E0],"tree_param":{"num_deleted":"0","num_feature":"30","num_nodes":"9","size_leaf_vector":"1"}},{"base_weights":[-1.9790882E-2,5.009183E-1,-3.1965417E-1,7.86538E-2,-1.9170465E-2,4.2440124E-2,-4.817127E-1,-4.119342E-3,-8.056297E-2],"categories":[],"categories_nodes":[],"categories_segments":[],"categories_sizes":[],"default_left":[0,0,0,0,0,0,0,0,0],"id":41,"left_children":[1,3,5,-1,-1,-1,7,-1,-1],"loss_changes":[2.4256196E0,1.2767527E0,1.3882464E0,0E0,0E0,0E0,1.1839836E0,0E0,0E0],"parents":[2147483647,0,0,1,1,2,2,6,6],"right_children":[2,4,6,-1,-1,-1,8,-1,-1],"split_conditions":[2.085E-1,4.276E1,9.163E1,7.86538E-2,-1.9170465E-2,4.2440124E-2,1.353E-1,-4.119342E-3,-8.056297E-2],"split_indices":[26,13,22,0,0,0,24,0,0],"split_type":[0,0,0,0,0,0,0,0,0],"sum_hessian":[1.3509263E1,4.691696E0,8.817566E0,3.2258477E0,1.4658487E0,1.287497E0,7.5300694E0,3.668361E0,3.8617084E0],"tree_param":{"num_deleted":"0","num_feature":"30","num_nodes":"9","size_leaf_vector":"1"}},{"base_weights":[-1.699819E-2,1.9917019E-1,-7.022747E-2,5.3320146E-1,-1.9573508E-1,6.747638E-2,-1.1568054E-2,4.8746094E-2,-5.406773E-2],"categories":[],"categories_nodes":[],"categories_segments":[],"categories_sizes":[],"default_left":[0,0,0,0,0,0,0,0,0],"id":42,"left_children":[1,3,-1,5,7,-1,-1,-1,-1],"loss_changes":[2.2215846E0,1.6163216E0,0E0,6.731169E-1,1.6737347E0,0E0,0E0,0E0,0E0],"parents":[2147483647,0,0,1,1,3,3,4,4],"right_children":[2,4,-1,6,8,-1,-1,-1,-1],"split_conditions":[1.583E-1,2.02E1,-7.022747E-2,4.834E-1,6.536E2,6.747638E-2,-1.1568054E-2,4.8746094E-2,-5.406773E-2],"split_indices":[27,1,0,10,23,0,0,0,0],"split_type":[0,0,0,0,0,0,0,0,0],"sum_hessian":[1.3052796E1,1.0461961E1,2.5908358E0,5.4781E0,4.983861E0,4.4642725E0,1.0138273E0,1.533476E0,3.450385E0],"tree_param":{"num_deleted":"0","num_feature":"30","num_nodes":"9","size_leaf_vector":"1"}},{"base_weights":[-1.7106099E-2,3.0255982E-1,-4.51578E-1,6.034689E-1,-2.2598854E-1,2.9764414E-2,-6.8493426E-1,-1.5981592E-2,8.044292E-2,3.4035478E-2,-5.7686634E-2,-8.4445095E-3,-8.157318E-2],"categories":[],"categories_nodes":[],"categories_segments":[],"categories_sizes":[],"default_left":[0,0,0,0,0,0,0,0,0,0,0,0,0],"id":43,"left_children":[1,3,5,7,9,-1,11,-1,-1,-1,-1,-1,-1],"loss_changes":[2.0288126E0,1.4799625E0,1.2836841E0,9.9607253E-1,9.499221E-1,0E0,3.2479405E-1,0E0,0E0,0E0,0E0,0E0,0E0],"parents":[2147483647,0,0,1,1,2,2,3,3,4,4,6,6],"right_children":[2,4,6,8,10,-1,12,-1,-1,-1,-1,-1,-1],"split_conditions":[3.133E1,1.38E-1,1.048E-1,4.119E-3,9.146E1,2.9764414E-2,1.806E1,-1.5981592E-2,8.044292E-2,3.4035478E-2,-5.7686634E-2,-8.4445095E-3,-8.157318E-2],"split_indices":[13,24,24,14,22,0,1,0,0,0,0,0,0],"split_type":[0,0,0,0,0,0,0,0,0,0,0,0,0],"sum_hessian":[1.2624017E1,7.447833E0,5.176184E0,4.655597E0,2.792236E0,1.1638839E0,4.0123E0,1.0129526E0,3.6426444E0,1.079627E0,1.7126092E0,1.0119721E0,3.000328E0],"tree_param":{"num_deleted":"0","num_feature":"30","num_nodes":"13","size_leaf_vector":"1"}},{"base_weights":[-1.722388E-2,4.6357834E-1,-2.8969678E-1,7.520729E-2,-1.7260797E-2,4.9074576E-3,-7.530396E-2,3.091308E-2,-7.129652E-2],"categories":[],"categories_nodes":[],"categories_segments":[],"categories_sizes":[],"default_left":[0,0,0,0,0,0,0,0,0],"id":44,"left_children":[1,3,5,-1,-1,7,-1,-1,-1],"loss_changes":[1.8597656E0,1.0747963E0,1.2352512E0,0E0,0E0,1.641905E0,0E0,0E0,0E0],"parents":[2147483647,0,0,1,1,2,2,5,5],"right_children":[2,4,6,-1,-1,8,-1,-1,-1],"split_conditions":[2.085E-1,4.276E1,9.67E2,7.520729E-2,-1.7260797E-2,3.201E1,-7.530396E-2,3.091308E-2,-7.129652E-2],"split_indices":[26,13,23,0,0,21,0,0,0],"split_type":[0,0,0,0,0,0,0,0,0],"sum_hessian":[1.2170955E1,4.14875E0,8.022205E0,2.72904E0,1.4197098E0,5.5089154E0,2.5132897E0,4.269111E0,1.2398041E0],"tree_param":{"num_deleted":"0","num_feature":"30","num_nodes":"9","size_leaf_vector":"1"}},{"base_weights":[-2.0506745E-2,1.7756304E-1,-6.605942E-2,-4.0820602E-1,4.0487856E-1,1.5373482E-2,-7.215106E-2,6.196626E-2,-1.951005E-2],"categories":[],"categories_nodes":[],"categories_segments":[],"categories_sizes":[],"default_left":[0,0,0,0,0,0,0,0,0],"id":45,"left_children":[1,3,-1,5,7,-1,-1,-1,-1],"loss_changes":[1.7333901E0,1.5664378E0,0E0,7.1653605E-1,1.1625205E0,0E0,0E0,0E0,0E0],"parents":[2147483647,0,0,1,1,3,3,4,4],"right_children":[2,4,-1,6,8,-1,-1,-1,-1],"split_conditions":[1.583E-1,1.203E-2,-6.605942E-2,2.657E-2,8.765E2,1.5373482E-2,-7.215106E-2,6.196626E-2,-1.951005E-2],"split_indices":[27,15,0,7,23,0,0,0,0],"split_type":[0,0,0,0,0,0,0,0,0],"sum_hessian":[1.1747025E1,9.522852E0,2.2241726E0,2.4398465E0,7.0830054E0,1.0556866E0,1.3841599E0,5.191658E0,1.8913474E0],"tree_param":{"num_deleted":"0","num_feature":"30","num_nodes":"9","size_leaf_vector":"1"}},{"base_weights":[-2.5283204E-2,4.470693E-1,-2.9180974E-1,7.303973E-2,-1.4772939E-2,1.7787147E-1,-5.4103756E-1,5.27067E-2,-3.70973E-2,-2.4509837E-3,-7.4149184E-2],"categories":[],"categories_nodes":[],"categories_segments":[],"categories_sizes":[],"default_left":[0,0,0,0,0,0,0,0,0,0,0],"id":46,"left_children":[1,3,5,-1,-1,7,9,-1,-1,-1,-1],"loss_changes":[1.6927595E0,9.28827E-1,1.0957091E0,0E0,0E0,9.0706235E-1,5.8502114E-1,0E0,0E0,0E0,0E0],"parents":[2147483647,0,0,1,1,2,2,5,5,6,6],"right_children":[2,4,6,-1,-1,8,10,-1,-1,-1,-1],"split_conditions":[2.085E-1,4.276E1,2.558E1,7.303973E-2,-1.4772939E-2,1.726E1,8.946E-2,5.27067E-2,-3.70973E-2,-2.4509837E-3,-7.4149184E-2],"split_indices":[26,13,21,0,0,20,4,0,0,0,0],"split_type":[0,0,0,0,0,0,0,0,0,0,0],"sum_hessian":[1.1409603E1,3.8712955E0,7.538307E0,2.467802E0,1.4034934E0,2.7125995E0,4.825708E0,1.6820772E0,1.0305223E0,1.66294E0,3.162768E0],"tree_param":{"num_deleted":"0","num_feature":"30","num_nodes":"11","size_leaf_vector":"1"}},{"base_weights":[-2.3498066E-2,2.3132116E-1,-4.8138312E-1,-3.9544293E-1,5.3365904E-1,4.7758226E-3,-6.9706805E-2,1.0713384E-2,-6.664342E-2,7.180556E-2,-1.9930003E-2],"categories":[],"categories_nodes":[],"categories_segments":[],"categories_sizes":[],"default_left":[0,0,0,0,0,0,0,0,0,0,0],"id":47,"left_children":[1,3,5,7,9,-1,-1,-1,-1,-1,-1],"loss_changes":[1.5151023E0,1.8037076E0,5.612576E-1,5.2211744E-1,9.669422E-1,0E0,0E0,0E0,0E0,0E0,0E0],"parents":[2147483647,0,0,1,1,2,2,3,3,4,4],"right_children":[2,4,6,8,10,-1,-1,-1,-1,-1,-1],"split_conditions":[5.596E-2,1.203E-2,2.384E1,1.938E1,3.207E-1,4.7758226E-3,-6.9706805E-2,1.0713384E-2,-6.664342E-2,7.180556E-2,-1.9930003E-2],"split_indices":[7,15,21,1,28,0,0,0,0,0,0],"split_type":[0,0,0,0,0,0,0,0,0,0,0],"sum_hessian":[1.1030968E1,7.4048653E0,3.6261024E0,2.309398E0,5.095467E0,1.275495E0,2.3506074E0,1.0208334E0,1.2885647E0,4.0874796E0,1.007988E0],"tree_param":{"num_deleted":"0","num_feature":"30","num_nodes":"11","size_leaf_vector":"1"}},{"base_weights":[-2.7470697E-2,4.208209E-1,-2.7904704E-1,7.078773E-2,-1.4859403E-2,1.6422042E-1,-5.1494634E-1,4.884847E-2,-3.2324646E-2,-8.411429E-2,-1.6286243E-2],"categories":[],"categories_nodes":[],"categories_segments":[],"categories_sizes":[],"default_left":[0,0,0,0,0,0,0,0,0,0,0],"id":48,"left_children":[1,3,5,-1,-1,7,9,-1,-1,-1,-1],"loss_changes":[1.4377017E0,8.5819083E-1,9.315371E-1,0E0,0E0,7.224528E-1,4.9792337E-1,0E0,0E0,0E0,0E0],"parents":[2147483647,0,0,1,1,2,2,5,5,6,6],"right_children":[2,4,6,-1,-1,8,10,-1,-1,-1,-1],"split_conditions":[2.085E-1,4.276E1,2.558E1,7.078773E-2,-1.4859403E-2,1.706E1,1.938E-2,4.884847E-2,-3.2324646E-2,-8.411429E-2,-1.6286243E-2],"split_indices":[26,13,21,0,0,20,15,0,0,0,0],"split_type":[0,0,0,0,0,0,0,0,0,0,0],"sum_hessian":[1.0706669E1,3.6068234E0,7.0998454E0,2.2362883E0,1.3705351E0,2.5715737E0,4.5282717E0,1.543047E0,1.0285269E0,1.6295216E0,2.89875E0],"tree_param":{"num_deleted":"0","num_feature":"30","num_nodes":"11","size_leaf_vector":"1"}},{"base_weights":[-2.7448563E-2,2.5758144E-1,-4.0311924E-1,5.35862E-1,-2.0544268E-1,2.9564029E-2,-6.477477E-1,-7.562924E-3,7.266062E-2,1.8561933E-2,-5.569138E-2,-7.287515E-2,-2.0164113E-2],"categories":[],"categories_nodes":[],"categories_segments":[],"categories_sizes":[],"default_left":[0,0,0,0,0,0,0,0,0,0,0,0,0],"id":49,"left_children":[1,3,5,7,9,-1,11,-1,-1,-1,-1,-1,-1],"loss_changes":[1.3273102E0,1.0258224E0,1.1007338E0,6.050403E-1,5.694235E-1,0E0,6.7495108E-3,0E0,0E0,0E0,0E0,0E0,0E0],"parents":[2147483647,0,0,1,1,2,2,3,3,4,4,6,6],"right_children":[2,4,6,8,10,-1,12,-1,-1,-1,-1,-1,-1],"split_conditions":[3.133E1,1.38E-1,1.048E-1,4.259E-3,2.987E1,2.9564029E-2,1.973E-1,-7.562924E-3,7.266062E-2,1.8561933E-2,-5.569138E-2,-7.287515E-2,-2.0164113E-2],"split_indices":[13,24,24,14,21,0,8,0,0,0,0,0,0],"split_type":[0,0,0,0,0,0,0,0,0,0,0,0,0],"sum_hessian":[1.0426071E1,6.106939E0,4.3191323E0,3.7161803E0,2.3907583E0,1.0659144E0,3.2532182E0,1.0270733E0,2.689107E0,1.3550025E0,1.0357559E0,2.2170634E0,1.0361547E0],"tree_param":{"num_deleted":"0","num_feature":"30","num_nodes":"13","size_leaf_vector":"1"}},{"base_weights":[-2.8346991E-2,2.107673E-1,-4.582473E-1,-3.8779604E-1,5.104202E-1,3.9319997E-3,-6.6503815E-2,4.436975E-3,-6.465624E-2,6.864214E-2,-7.3850784E-3],"categories":[],"categories_nodes":[],"categories_segments":[],"categories_sizes":[],"default_left":[0,0,0,0,0,0,0,0,0,0,0],"id":50,"left_children":[1,3,5,7,9,-1,-1,-1,-1,-1,-1],"loss_changes":[1.2422855E0,1.6053679E0,4.684397E-1,3.849841E-1,6.328106E-1,0E0,0E0,0E0,0E0,0E0,0E0],"parents":[2147483647,0,0,1,1,2,2,3,3,4,4],"right_children":[2,4,6,8,10,-1,-1,-1,-1,-1,-1],"split_conditions":[5.596E-2,1.203E-2,2.384E1,2.153E1,3.174E-1,3.9319997E-3,-6.6503815E-2,4.436975E-3,-6.465624E-2,6.864214E-2,-7.3850784E-3],"split_indices":[7,15,21,1,28,0,0,0,0,0,0],"split_type":[0,0,0,0,0,0,0,0,0,0,0],"sum_hessian":[1.0145468E1,6.846895E0,3.2985728E0,2.1860538E0,4.6608415E0,1.2061841E0,2.0923886E0,1.1290164E0,1.0570372E0,3.4475079E0,1.2133337E0],"tree_param":{"num_deleted":"0","num_feature":"30","num_nodes":"11","size_leaf_vector":"1"}},{"base_weights":[-3.1665474E-2,3.8940877E-1,-2.6541153E-1,6.77448E-2,-1.4473743E-2,-4.531439E-1,2.3545928E-2,9.290379E-3,-6.0187757E-2],"categories":[],"categories_nodes":[],"categories_segments":[],"categories_sizes":[],"default_left":[0,0,0,0,0,0,0,0,0],"id":51,"left_children":[1,3,5,-1,-1,7,-1,-1,-1],"loss_changes":[1.1739937E0,7.578254E-1,8.20336E-1,0E0,0E0,5.320301E-1,0E0,0E0,0E0],"parents":[2147483647,0,0,1,1,2,2,5,5],"right_children":[2,4,6,-1,-1,8,-1,-1,-1],"split_conditions":[2.085E-1,4.276E1,3.916E-2,6.77448E-2,-1.4473743E-2,2.367E-1,2.3545928E-2,9.290379E-3,-6.0187757E-2],"split_indices":[26,13,15,0,0,10,0,0,0],"split_type":[0,0,0,0,0,0,0,0,0],"sum_hessian":[9.877788E0,3.2882779E0,6.5895095E0,1.9619898E0,1.3262882E0,4.8623357E0,1.7271738E0,1.1212488E0,3.741087E0],"tree_param":{"num_deleted":"0","num_feature":"30","num_nodes":"9","size_leaf_vector":"1"}},{"base_weights":[-2.6464948E-2,1.4503428E-1,-5.8619678E-2,-2.2719654E-1,4.8122182E-1,5.2478917E-2,-5.8179405E-2,7.525143E-2,9.450152E-3],"categories":[],"categories_nodes":[],"categories_segments":[],"categories_sizes":[],"default_left":[0,0,0,0,0,0,0,0,0],"id":52,"left_children":[1,3,-1,5,7,-1,-1,-1,-1],"loss_changes":[1.1087354E0,1.2311946E0,0E0,1.6208968E0,4.567337E-1,0E0,0E0,0E0,0E0],"parents":[2147483647,0,0,1,1,3,3,4,4],"right_children":[2,4,-1,6,8,-1,-1,-1,-1],"split_conditions":[1.583E-1,1.77E-2,-5.8619678E-2,1.814E1,4.079E-2,5.2478917E-2,-5.8179405E-2,7.525143E-2,9.450152E-3],"split_indices":[27,15,0,1,7,0,0,0,0],"split_type":[0,0,0,0,0,0,0,0,0],"sum_hessian":[9.664431E0,7.964906E0,1.6995242E0,3.933683E0,4.0312233E0,1.106724E0,2.826959E0,1.8132807E0,2.2179425E0],"tree_param":{"num_deleted":"0","num_feature":"30","num_nodes":"9","size_leaf_vector":"1"}},{"base_weights":[-2.2175876E-2,2.4214521E-1,-3.6870593E-1,5.038934E-1,-1.8470746E-1,2.7527055E-2,-6.0464602E-2,-4.822084E-3,6.8725266E-2,1.7708762E-2,-4.836103E-2],"categories":[],"categories_nodes":[],"categories_segments":[],"categories_sizes":[],"default_left":[0,0,0,0,0,0,0,0,0,0,0],"id":53,"left_children":[1,3,5,7,9,-1,-1,-1,-1,-1,-1],"loss_changes":[1.04375E0,8.209865E-1,9.1177696E-1,4.6914136E-1,4.3258554E-1,0E0,0E0,0E0,0E0,0E0,0E0],"parents":[2147483647,0,0,1,1,2,2,3,3,4,4],"right_children":[2,4,6,8,10,-1,-1,-1,-1,-1,-1],"split_conditions":[3.133E1,1.38E-1,1.048E-1,7.039E-3,1.96E1,2.7527055E-2,-6.0464602E-2,-4.822084E-3,6.8725266E-2,1.7708762E-2,-4.836103E-2],"split_indices":[13,24,24,17,1,0,0,0,0,0,0],"split_type":[0,0,0,0,0,0,0,0,0,0,0],"sum_hessian":[9.42052E0,5.515056E0,3.9054642E0,3.3068151E0,2.2082407E0,1.0025101E0,2.902954E0,1.0081583E0,2.298657E0,1.1833919E0,1.0248488E0],"tree_param":{"num_deleted":"0","num_feature":"30","num_nodes":"11","size_leaf_vector":"1"}},{"base_weights":[-2.0236226E-2,4.3599474E-1,-2.173124E-1,5.978275E-2,3.307874E-3,2.429475E-1,-5.497169E-1,-3.621061E-2,6.671781E-2,-1.0859029E-2,-6.559642E-2],"categories":[],"categories_nodes":[],"categories_segments":[],"categories_sizes":[],"default_left":[0,0,0,0,0,0,0,0,0,0,0],"id":54,"left_children":[1,3,5,-1,-1,7,9,-1,-1,-1,-1],"loss_changes":[1.011007E0,2.023601E-1,1.324427E0,0E0,0E0,1.2574557E0,1.5496528E-1,0E0,0E0,0E0,0E0],"parents":[2147483647,0,0,1,1,2,2,5,5,6,6],"right_children":[2,4,6,-1,-1,8,10,-1,-1,-1,-1],"split_conditions":[2.303E1,1.252E-1,9.029E-2,5.978275E-2,3.307874E-3,5.592E-2,1.449E1,-3.621061E-2,6.671781E-2,-1.0859029E-2,-6.559642E-2],"split_indices":[21,27,4,0,0,9,20,0,0,0,0],"split_type":[0,0,0,0,0,0,0,0,0,0,0],"sum_hessian":[9.190602E0,2.4067242E0,6.7838783E0,1.371931E0,1.0347933E0,2.9576812E0,3.8261971E0,1.2793971E0,1.678284E0,1.1351666E0,2.6910305E0],"tree_param":{"num_deleted":"0","num_feature":"30","num_nodes":"11","size_leaf_vector":"1"}},{"base_weights":[-1.6803551E-2,3.7228465E-1,-2.380516E-1,6.479134E-2,-1.2621673E-2,2.8877223E-2,-3.9665112E-1,1.1756211E-2,-5.32955E-2],"categories":[],"categories_nodes":[],"categories_segments":[],"categories_sizes":[],"default_left":[0,0,0,0,0,0,0,0,0],"id":55,"left_children":[1,3,5,-1,-1,-1,7,-1,-1],"loss_changes":[9.42678E-1,6.295193E-1,6.939578E-1,0E0,0E0,0E0,4.6576208E-1,0E0,0E0],"parents":[2147483647,0,0,1,1,2,2,6,6],"right_children":[2,4,6,-1,-1,-1,8,-1,-1],"split_conditions":[2.085E-1,4.276E1,1.449E1,6.479134E-2,-1.2621673E-2,2.8877223E-2,2.215E1,1.1756211E-2,-5.32955E-2],"split_indices":[26,13,20,0,0,0,21,0,0],"split_type":[0,0,0,0,0,0,0,0,0],"sum_hessian":[8.921066E0,2.9864388E0,5.9346275E0,1.7301123E0,1.2563266E0,1.1832926E0,4.751335E0,1.0243653E0,3.7269697E0],"tree_param":{"num_deleted":"0","num_feature":"30","num_nodes":"9","size_leaf_vector":"1"}},{"base_weights":[-1.1215999E-2,1.4620084E-1,-5.380682E-2,-3.7902E-1,3.752079E-1,1.3510514E-3,-5.8255583E-2,6.666541E-2,8.0566964E-4],"categories":[],"categories_nodes":[],"categories_segments":[],"categories_sizes":[],"default_left":[0,0,0,0,0,0,0,0,0],"id":56,"left_children":[1,3,-1,5,7,-1,-1,-1,-1],"loss_changes":[8.845905E-1,1.1367184E0,0E0,2.4819118E-1,6.645141E-1,0E0,0E0,0E0,0E0],"parents":[2147483647,0,0,1,1,3,3,4,4],"right_children":[2,4,-1,6,8,-1,-1,-1,-1],"split_conditions":[1.583E-1,1.203E-2,-5.380682E-2,9.048E-2,4.079E-2,1.3510514E-3,-5.8255583E-2,6.666541E-2,8.0566964E-4],"split_indices":[27,15,0,4,7,0,0,0,0],"split_type":[0,0,0,0,0,0,0,0,0],"sum_hessian":[8.717497E0,7.268316E0,1.4491807E0,2.0079908E0,5.2603254E0,1.0044576E0,1.0035331E0,2.477738E0,2.7825873E0],"tree_param":{"num_deleted":"0","num_feature":"30","num_nodes":"9","size_leaf_vector":"1"}},{"base_weights":[-1.4575495E-2,4.1401607E-1,-2.0257431E-1,5.701313E-2,3.415115E-3,2.2387055E-1,-5.0955814E-1,-3.4305807E-2,6.3691795E-2,-1.9455127E-2,-7.118386E-2],"categories":[],"categories_nodes":[],"categories_segments":[],"categories_sizes":[],"default_left":[0,0,0,0,0,0,0,0,0,0,0],"id":57,"left_children":[1,3,5,-1,-1,7,9,-1,-1,-1,-1],"loss_changes":[8.535874E-1,1.7274189E-1,1.0712545E0,0E0,0E0,1.0978305E0,1.5185118E-1,0E0,0E0,0E0,0E0],"parents":[2147483647,0,0,1,1,2,2,5,5,6,6],"right_children":[2,4,6,-1,-1,8,10,-1,-1,-1,-1],"split_conditions":[2.303E1,1.252E-1,9.029E-2,5.701313E-2,3.415115E-3,5.592E-2,3.444E1,-3.4305807E-2,6.3691795E-2,-1.9455127E-2,-7.118386E-2],"split_indices":[21,27,4,0,0,9,13,0,0,0,0],"split_type":[0,0,0,0,0,0,0,0,0,0,0],"sum_hessian":[8.552854E0,2.2412107E0,6.3116426E0,1.2334245E0,1.0077863E0,2.755122E0,3.5565205E0,1.2326683E0,1.5224535E0,2.1578846E0,1.398636E0],"tree_param":{"num_deleted":"0","num_feature":"30","num_nodes":"11","size_leaf_vector":"1"}},{"base_weights":[-1.333773E-2,3.5377708E-1,-2.2224975E-1,6.214111E-2,-1.1441092E-2,-3.9885736E-1,2.377806E-2,1.6146165E-3,-5.794099E-2],"categories":[],"categories_nodes":[],"categories_segments":[],"categories_sizes":[],"default_left":[0,0,0,0,0,0,0,0,0],"id":58,"left_children":[1,3,5,-1,-1,7,-1,-1,-1],"loss_changes":[7.943005E-1,5.4350674E-1,6.2791383E-1,0E0,0E0,3.9259654E-1,0E0,0E0,0E0],"parents":[2147483647,0,0,1,1,2,2,5,5],"right_children":[2,4,6,-1,-1,8,-1,-1,-1],"split_conditions":[2.085E-1,4.276E1,3.932E-2,6.214111E-2,-1.1441092E-2,1.89E1,2.377806E-2,1.6146165E-3,-5.794099E-2],"split_indices":[26,13,15,0,0,1,0,0,0],"split_type":[0,0,0,0,0,0,0,0,0],"sum_hessian":[8.331463E0,2.7701447E0,5.5613184E0,1.5543506E0,1.2157941E0,4.1146593E0,1.4466591E0,1.5234816E0,2.5911775E0],"tree_param":{"num_deleted":"0","num_feature":"30","num_nodes":"9","size_leaf_vector":"1"}},{"base_weights":[-1.0088055E-2,1.4069898E-1,-5.117743E-2,-3.9081525E-2,3.6276278E-1,5.313123E-2,-8.228867E-3],"categories":[],"categories_nodes":[],"categories_segments":[],"categories_sizes":[],"default_left":[0,0,0,0,0,0,0],"id":59,"left_children":[1,3,-1,-1,5,-1,-1],"loss_changes":[7.6622164E-1,1.0671886E0,0E0,0E0,4.974525E-1,0E0,0E0],"parents":[2147483647,0,0,1,1,4,4],"right_children":[2,4,-1,-1,6,-1,-1],"split_conditions":[1.583E-1,6.053E-2,-5.117743E-2,-3.9081525E-2,8.765E2,5.313123E-2,-8.228867E-3],"split_indices":[27,5,0,0,23,0,0],"split_type":[0,0,0,0,0,0,0],"sum_hessian":[8.176945E0,6.840507E0,1.3364381E0,1.7918216E0,5.0486856E0,3.5212848E0,1.5274004E0],"tree_param":{"num_deleted":"0","num_feature":"30","num_nodes":"7","size_leaf_vector":"1"}},{"base_weights":[-1.4067064E-2,3.4423527E-1,-2.1736565E-1,-1.2127384E-2,5.85755E-2,1.1208516E-2,-6.0546648E-2,4.0418386E-2,-3.6136705E-2],"categories":[],"categories_nodes":[],"categories_segments":[],"categories_sizes":[],"default_left":[0,0,0,0,0,0,0,0,0],"id":60,"left_children":[1,3,5,-1,-1,7,-1,-1,-1],"loss_changes":[7.325387E-1,4.820378E-1,5.721914E-1,0E0,0E0,8.77105E-1,0E0,0E0,0E0],"parents":[2147483647,0,0,1,1,2,2,5,5],"right_children":[2,4,6,-1,-1,8,-1,-1,-1],"split_conditions":[2.085E-1,5.956E-2,9.67E2,-1.2127384E-2,5.85755E-2,2.737E1,-6.0546648E-2,4.0418386E-2,-3.6136705E-2],"split_indices":[26,5,23,0,0,21,0,0,0],"split_type":[0,0,0,0,0,0,0,0,0],"sum_hessian":[8.029276E0,2.6556292E0,5.3736467E0,1.0772301E0,1.5783991E0,3.9930418E0,1.3806049E0,1.9020308E0,2.0910108E0],"tree_param":{"num_deleted":"0","num_feature":"30","num_nodes":"9","size_leaf_vector":"1"}},{"base_weights":[-1.4010935E-2,3.1362194E-1,-2.352311E-1,-1.8760547E-2,6.4585425E-2,3.4334835E-2,-4.362234E-1,1.0351707E-2,-6.157848E-2],"categories":[],"categories_nodes":[],"categories_segments":[],"categories_sizes":[],"default_left":[0,0,0,0,0,0,0,0,0],"id":61,"left_children":[1,3,5,-1,-1,-1,7,-1,-1],"loss_changes":[7.152093E-1,7.865355E-1,8.305745E-1,0E0,0E0,0E0,5.27525E-1,0E0,0E0],"parents":[2147483647,0,0,1,1,2,2,6,6],"right_children":[2,4,6,-1,-1,-1,8,-1,-1],"split_conditions":[8.875E-2,5.592E-2,5.52E2,-1.8760547E-2,6.4585425E-2,3.4334835E-2,2.303E1,1.0351707E-2,-6.157848E-2],"split_indices":[4,9,23,0,0,0,21,0,0],"split_type":[0,0,0,0,0,0,0,0,0],"sum_hessian":[7.8499517E0,2.9956396E0,4.8543124E0,1.3676426E0,1.6279969E0,1.0689499E0,3.7853622E0,1.0506704E0,2.7346919E0],"tree_param":{"num_deleted":"0","num_feature":"30","num_nodes":"9","size_leaf_vector":"1"}},{"base_weights":[-9.416934E-3,1.8008663E-1,-3.6975843E-1,-3.5167214E-2,4.58514E-1,1.3063918E-3,-5.5357367E-2,5.8206674E-2,5.5972626E-3],"categories":[],"categories_nodes":[],"categories_segments":[],"categories_sizes":[],"default_left":[0,0,0,0,0,0,0,0,0],"id":62,"left_children":[1,3,5,-1,7,-1,-1,-1,-1],"loss_changes":[6.584201E-1,1.101755E0,2.4047413E-1,0E0,1.9637012E-1,0E0,0E0,0E0,0E0],"parents":[2147483647,0,0,1,1,2,2,4,4],"right_children":[2,4,6,-1,8,-1,-1,-1,-1],"split_conditions":[5.596E-2,6.053E-2,2.489E1,-3.5167214E-2,1.684E1,1.3063918E-3,-5.5357367E-2,5.8206674E-2,5.5972626E-3],"split_indices":[7,5,21,0,20,0,0,0,0],"split_type":[0,0,0,0,0,0,0,0,0],"sum_hessian":[7.666954E0,5.352374E0,2.3145797E0,1.7489843E0,3.60339E0,1.0521829E0,1.2623968E0,2.4158952E0,1.1874946E0],"tree_param":{"num_deleted":"0","num_feature":"30","num_nodes":"9","size_leaf_vector":"1"}},{"base_weights":[-1.1435323E-2,3.3185342E-1,-2.1124206E-1,5.8752835E-2,-1.006204E-2,-3.717029E-1,2.1723043E-2,1.0285132E-3,-5.3327292E-2],"categories":[],"categories_nodes":[],"categories_segments":[],"categories_sizes":[],"default_left":[0,0,0,0,0,0,0,0,0],"id":63,"left_children":[1,3,5,-1,-1,7,-1,-1,-1],"loss_changes":[6.5499663E-1,4.490144E-1,4.9333757E-1,0E0,0E0,2.9771113E-1,0E0,0E0,0E0],"parents":[2147483647,0,0,1,1,2,2,5,5],"right_children":[2,4,6,-1,-1,8,-1,-1,-1],"split_conditions":[2.085E-1,4.276E1,3.932E-2,5.8752835E-2,-1.006204E-2,1.89E1,2.1723043E-2,1.0285132E-3,-5.3327292E-2],"split_indices":[26,13,15,0,0,1,0,0,0],"split_type":[0,0,0,0,0,0,0,0,0],"sum_hessian":[7.527238E0,2.5261602E0,5.0010777E0,1.3622689E0,1.1638914E0,3.7348773E0,1.2662002E0,1.3884975E0,2.3463798E0],"tree_param":{"num_deleted":"0","num_feature":"30","num_nodes":"9","size_leaf_vector":"1"}},{"base_weights":[-8.163852E-3,4.233181E-2,-1.656655E-1,3.667911E-2,-3.6795452E-1,7.641632E-3,-4.9060777E-2],"categories":[],"categories_nodes":[],"categories_segments":[],"categories_sizes":[],"default_left":[0,0,0,0,0,0,0],"id":64,"left_children":[1,-1,3,-1,5,-1,-1],"loss_changes":[6.4094883E-1,0E0,8.7515306E-1,0E0,3.3612967E-1,0E0,0E0],"parents":[2147483647,0,0,2,2,4,4],"right_children":[2,-1,4,-1,6,-1,-1],"split_conditions":[1.084E-1,4.233181E-2,1.941E1,3.667911E-2,2.281E1,7.641632E-3,-4.9060777E-2],"split_indices":[24,0,13,0,21,0,0],"split_type":[0,0,0,0,0,0,0],"sum_hessian":[7.3994555E0,1.5273942E0,5.8720613E0,1.392797E0,4.4792643E0,1.0504549E0,3.4288096E0],"tree_param":{"num_deleted":"0","num_feature":"30","num_nodes":"7","size_leaf_vector":"1"}},{"base_weights":[-2.8987408E-3,2.024629E-1,-3.253688E-1,4.077933E-1,-3.2237194E-2,-1.6250364E-4,-5.0922003E-2,-1.228917E-2,6.0709544E-2],"categories":[],"categories_nodes":[],"categories_segments":[],"categories_sizes":[],"default_left":[0,0,0,0,0,0,0,0,0],"id":65,"left_children":[1,3,5,7,-1,-1,-1,-1,-1],"loss_changes":[6.1544436E-1,7.442559E-1,2.1418187E-1,5.536075E-1,0E0,0E0,0E0,0E0,0E0],"parents":[2147483647,0,0,1,1,2,2,3,3],"right_children":[2,4,6,8,-1,-1,-1,-1,-1],"split_conditions":[1.374E-1,4.855E1,1.89E1,5.592E-2,-3.2237194E-2,-1.6250364E-4,-5.0922003E-2,-1.228917E-2,6.0709544E-2],"split_indices":[24,13,1,9,0,0,0,0,0],"split_type":[0,0,0,0,0,0,0,0,0],"sum_hessian":[7.2987704E0,4.686422E0,2.6123486E0,3.5288436E0,1.1575783E0,1.3115964E0,1.300752E0,1.0681236E0,2.46072E0],"tree_param":{"num_deleted":"0","num_feature":"30","num_nodes":"9","size_leaf_vector":"1"}},{"base_weights":[-6.651241E-3,1.3140103E-1,-4.6488043E-2,-2.1908261E-1,4.4984937E-1,-4.39299E-2,1.9023135E-2,6.477272E-2,1.2078811E-2],"categories":[],"categories_nodes":[],"categories_segments":[],"categories_sizes":[],"default_left":[0,0,0,0,0,0,0,0,0],"id":66,"left_children":[1,3,-1,5,7,-1,-1,-1,-1],"loss_changes":[5.7697016E-1,8.85032E-1,0E0,4.4655794E-1,1.8349051E-1,0E0,0E0,0E0,0E0],"parents":[2147483647,0,0,1,1,3,3,4,4],"right_children":[2,4,-1,6,8,-1,-1,-1,-1],"split_conditions":[1.583E-1,1.77E-2,-4.6488043E-2,1.669E-2,4.079E-2,-4.39299E-2,1.9023135E-2,6.477272E-2,1.2078811E-2],"split_indices":[27,15,0,18,7,0,0,0,0],"split_type":[0,0,0,0,0,0,0,0,0],"sum_hessian":[7.1550407E0,6.0466022E0,1.1084388E0,3.0270584E0,3.019544E0,1.9205304E0,1.1065278E0,1.2808859E0,1.7386578E0],"tree_param":{"num_deleted":"0","num_feature":"30","num_nodes":"9","size_leaf_vector":"1"}},{"base_weights":[-5.258909E-3,2.4418414E-1,-2.5457698E-1,5.2473962E-2,-2.4351189E-2,-5.2443236E-2,8.166135E-3],"categories":[],"categories_nodes":[],"categories_segments":[],"categories_sizes":[],"default_left":[0,0,0,0,0,0,0],"id":67,"left_children":[1,3,5,-1,-1,-1,-1],"loss_changes":[5.619243E-1,7.4724305E-1,4.519133E-1,0E0,0E0,0E0,0E0],"parents":[2147483647,0,0,1,1,2,2],"right_children":[2,4,6,-1,-1,-1,-1],"split_conditions":[2.829E-1,1.403E-2,1.906E-2,5.2473962E-2,-2.4351189E-2,-5.2443236E-2,8.166135E-3],"split_indices":[28,17,18,0,0,0,0],"split_type":[0,0,0,0,0,0,0],"sum_hessian":[7.0359435E0,3.5273836E0,3.50856E0,2.191011E0,1.3363726E0,1.6359159E0,1.8726441E0],"tree_param":{"num_deleted":"0","num_feature":"30","num_nodes":"7","size_leaf_vector":"1"}},{"base_weights":[-6.7151887E-3,1.289887E-1,-4.4188276E-2,5.7241924E-2,-1.3917777E-1,-4.7832213E-2,1.1028337E-2],"categories":[],"categories_nodes":[],"categories_segments":[],"categories_sizes":[],"default_left":[0,0,0,0,0,0,0],"id":68,"left_children":[1,3,-1,-1,5,-1,-1],"loss_changes":[5.260392E-1,8.9167625E-1,0E0,0E0,4.8081273E-1,0E0,0E0],"parents":[2147483647,0,0,1,1,4,4],"right_children":[2,4,-1,-1,6,-1,-1],"split_conditions":[4.106E0,2.085E-1,-4.4188276E-2,5.7241924E-2,1.77E-2,-4.7832213E-2,1.1028337E-2],"split_indices":[12,26,0,0,15,0,0],"split_type":[0,0,0,0,0,0,0],"sum_hessian":[6.942591E0,5.828579E0,1.1140124E0,1.768946E0,4.0596333E0,1.3317233E0,2.7279096E0],"tree_param":{"num_deleted":"0","num_feature":"30","num_nodes":"7","size_leaf_vector":"1"}},{"base_weights":[-9.019878E-3,1.4312398E-1,-4.0063802E-2,-3.400418E-2,3.7159166E-1,6.569677E-2,-8.853833E-3],"categories":[],"categories_nodes":[],"categories_segments":[],"categories_sizes":[],"default_left":[0,0,0,0,0,0,0],"id":69,"left_children":[1,3,-1,-1,5,-1,-1],"loss_changes":[5.237944E-1,8.30084E-1,0E0,0E0,6.8926835E-1,0E0,0E0],"parents":[2147483647,0,0,1,1,4,4],"right_children":[2,4,-1,-1,6,-1,-1],"split_conditions":[3.215E-1,1.203E-2,-4.0063802E-2,-3.400418E-2,5.259E-2,6.569677E-2,-8.853833E-3],"split_indices":[28,15,0,0,7,0,0],"split_type":[0,0,0,0,0,0,0],"sum_hessian":[6.8287263E0,5.3750486E0,1.4536777E0,1.5688565E0,3.8061924E0,2.0851684E0,1.7210239E0],"tree_param":{"num_deleted":"0","num_feature":"30","num_nodes":"7","size_leaf_vector":"1"}},{"base_weights":[-1.0136737E-2,3.4878347E-2,-1.7599413E-1,1.8522091E-1,-4.3147486E-1,-2.7398814E-2,5.393056E-2,-1.54095115E-2,-5.9269067E-2],"categories":[],"categories_nodes":[],"categories_segments":[],"categories_sizes":[],"default_left":[0,0,0,0,0,0,0,0,0],"id":70,"left_children":[1,-1,3,5,7,-1,-1,-1,-1],"loss_changes":[5.1990974E-1,0E0,6.274109E-1,6.611576E-1,7.749313E-2,0E0,0E0,0E0,0E0],"parents":[2147483647,0,0,2,2,3,3,4,4],"right_children":[2,-1,4,6,8,-1,-1,-1,-1],"split_conditions":[2.303E1,3.4878347E-2,9.029E-2,5.592E-2,3.444E1,-2.7398814E-2,5.393056E-2,-1.54095115E-2,-5.9269067E-2],"split_indices":[21,0,4,9,13,0,0,0,0],"split_type":[0,0,0,0,0,0,0,0,0],"sum_hessian":[6.7024894E0,1.7697618E0,4.932728E0,2.157428E0,2.7752998E0,1.0377662E0,1.1196618E0,1.7390352E0,1.0362644E0],"tree_param":{"num_deleted":"0","num_feature":"30","num_nodes":"9","size_leaf_vector":"1"}},{"base_weights":[-1.097485E-2,2.1671537E-1,-2.5738165E-1,4.8774473E-2,-5.3143702E-2,-4.288792E-2,1.0834262E-2,2.105917E-2,-2.912329E-2],"categories":[],"categories_nodes":[],"categories_segments":[],"categories_sizes":[],"default_left":[0,0,0,0,0,0,0,0,0],"id":71,"left_children":[1,3,5,-1,7,-1,-1,-1,-1],"loss_changes":[4.804475E-1,3.533619E-1,3.0314025E-1,0E0,2.5881726E-1,0E0,0E0,0E0,0E0],"parents":[2147483647,0,0,1,1,2,2,4,4],"right_children":[2,4,6,-1,8,-1,-1,-1,-1],"split_conditions":[2.02E1,2.472E1,3.856E-3,4.8774473E-2,9.752E-2,-4.288792E-2,1.0834262E-2,2.105917E-2,-2.912329E-2],"split_indices":[1,13,19,0,4,0,0,0,0],"split_type":[0,0,0,0,0,0,0,0,0],"sum_hessian":[6.5692606E0,3.4769294E0,3.0923312E0,1.3318741E0,2.1450553E0,1.9876066E0,1.1047245E0,1.0725101E0,1.0725452E0],"tree_param":{"num_deleted":"0","num_feature":"30","num_nodes":"9","size_leaf_vector":"1"}},{"base_weights":[-8.7455325E-3,3.9533954E-2,-1.4404371E-1,3.3793584E-2,-3.1995735E-1,4.258023E-3,-4.995575E-2],"categories":[],"categories_nodes":[],"categories_segments":[],"categories_sizes":[],"default_left":[0,0,0,0,0,0,0],"id":72,"left_children":[1,-1,3,-1,5,-1,-1],"loss_changes":[4.6625972E-1,0E0,6.458179E-1,0E0,3.572263E-1,0E0,0E0],"parents":[2147483647,0,0,2,2,4,4],"right_children":[2,-1,4,-1,6,-1,-1],"split_conditions":[5.52E2,3.9533954E-2,1.084E-1,3.3793584E-2,2.42E1,4.258023E-3,-4.995575E-2],"split_indices":[23,0,24,0,13,0,0],"split_type":[0,0,0,0,0,0,0],"sum_hessian":[6.4867167E0,1.1450108E0,5.341706E0,1.1820412E0,4.1596646E0,1.6307595E0,2.5289054E0],"tree_param":{"num_deleted":"0","num_feature":"30","num_nodes":"7","size_leaf_vector":"1"}},{"base_weights":[-4.3153767E-3,1.821602E-1,-2.9096562E-1,3.626458E-1,-2.609078E-2,1.4365737E-3,-4.6308964E-2,-6.8157176E-3,5.3551923E-2],"categories":[],"categories_nodes":[],"categories_segments":[],"categories_sizes":[],"default_left":[0,0,0,0,0,0,0,0,0],"id":73,"left_children":[1,3,5,7,-1,-1,-1,-1,-1],"loss_changes":[4.4749624E-1,5.013607E-1,1.7975768E-1,3.3682156E-1,0E0,0E0,0E0,0E0,0E0],"parents":[2147483647,0,0,1,1,2,2,3,3],"right_children":[2,4,6,8,-1,-1,-1,-1,-1],"split_conditions":[1.374E-1,4.855E1,1.012E2,5.594E-2,-2.609078E-2,1.4365737E-3,-4.6308964E-2,-6.8157176E-3,5.3551923E-2],"split_indices":[24,13,22,9,0,0,0,0,0],"split_type":[0,0,0,0,0,0,0,0,0],"sum_hessian":[6.3801646E0,4.086367E0,2.2937975E0,3.0325553E0,1.0538119E0,1.1573353E0,1.1364622E0,1.0418901E0,1.9906651E0],"tree_param":{"num_deleted":"0","num_feature":"30","num_nodes":"9","size_leaf_vector":"1"}},{"base_weights":[-7.143036E-3,2.1753408E-1,-2.499458E-1,4.5847323E-2,-4.4823247E-3,-4.3096222E-2,8.138496E-3],"categories":[],"categories_nodes":[],"categories_segments":[],"categories_sizes":[],"default_left":[0,0,0,0,0,0,0],"id":74,"left_children":[1,3,5,-1,-1,-1,-1],"loss_changes":[4.505378E-1,2.9277498E-1,2.723171E-1,0E0,0E0,0E0,0E0],"parents":[2147483647,0,0,1,1,2,2],"right_children":[2,4,6,-1,-1,-1,-1],"split_conditions":[2.02E1,2.658E-3,1.88E-2,4.5847323E-2,-4.4823247E-3,-4.3096222E-2,8.138496E-3],"split_indices":[1,19,18,0,0,0,0],"split_type":[0,0,0,0,0,0,0],"sum_hessian":[6.262142E0,3.3065255E0,2.9556167E0,1.333956E0,1.9725695E0,1.7169127E0,1.2387041E0],"tree_param":{"num_deleted":"0","num_feature":"30","num_nodes":"7","size_leaf_vector":"1"}},{"base_weights":[-5.543991E-3,3.271469E-2,-1.6078672E-1,1.7681489E-2,-3.980162E-1,-1.0032537E-2,-4.8889928E-2],"categories":[],"categories_nodes":[],"categories_segments":[],"categories_sizes":[],"default_left":[0,0,0,0,0,0,0],"id":75,"left_children":[1,-1,3,-1,5,-1,-1],"loss_changes":[4.249676E-1,0E0,5.1777875E-1,0E0,4.803747E-2,0E0,0E0],"parents":[2147483647,0,0,2,2,4,4],"right_children":[2,-1,4,-1,6,-1,-1],"split_conditions":[2.303E1,3.271469E-2,9.029E-2,1.7681489E-2,2.472E1,-1.0032537E-2,-4.8889928E-2],"split_indices":[21,0,4,0,13,0,0],"split_type":[0,0,0,0,0,0,0],"sum_hessian":[6.209724E0,1.6233977E0,4.5863266E0,1.9978504E0,2.5884762E0,1.0974927E0,1.4909834E0],"tree_param":{"num_deleted":"0","num_feature":"30","num_nodes":"7","size_leaf_vector":"1"}},{"base_weights":[-6.2905876E-3,2.2345647E-1,-2.3349279E-1,4.637303E-2,-1.9205904E-2,-4.7434147E-2,7.758158E-3],"categories":[],"categories_nodes":[],"categories_segments":[],"categories_sizes":[],"default_left":[0,0,0,0,0,0,0],"id":76,"left_children":[1,3,5,-1,-1,-1,-1],"loss_changes":[4.2490608E-1,4.9454162E-1,3.4242016E-1,0E0,0E0,0E0,0E0],"parents":[2147483647,0,0,1,1,2,2],"right_children":[2,4,6,-1,-1,-1,-1],"split_conditions":[2.829E-1,1.403E-2,1.906E-2,4.637303E-2,-1.9205904E-2,-4.7434147E-2,7.758158E-3],"split_indices":[28,17,18,0,0,0,0],"split_type":[0,0,0,0,0,0,0],"sum_hessian":[6.1405644E0,3.0613804E0,3.0791838E0,1.8662034E0,1.195177E0,1.439672E0,1.639512E0],"tree_param":{"num_deleted":"0","num_feature":"30","num_nodes":"7","size_leaf_vector":"1"}},{"base_weights":[-7.425412E-3,3.751961E-2,-1.3739577E-1,3.073745E-2,-3.0027744E-1,3.1346453E-3,-4.6175487E-2],"categories":[],"categories_nodes":[],"categories_segments":[],"categories_sizes":[],"default_left":[0,0,0,0,0,0,0],"id":77,"left_children":[1,-1,3,-1,5,-1,-1],"loss_changes":[4.0304682E-1,0E0,5.275439E-1,0E0,2.770483E-1,0E0,0E0],"parents":[2147483647,0,0,2,2,4,4],"right_children":[2,-1,4,-1,6,-1,-1],"split_conditions":[5.52E2,3.751961E-2,1.084E-1,3.073745E-2,2.42E1,3.1346453E-3,-4.6175487E-2],"split_indices":[23,0,24,0,13,0,0],"split_type":[0,0,0,0,0,0,0],"sum_hessian":[6.068175E0,1.060214E0,5.007961E0,1.1045996E0,3.903361E0,1.5421491E0,2.361212E0],"tree_param":{"num_deleted":"0","num_feature":"30","num_nodes":"7","size_leaf_vector":"1"}},{"base_weights":[-3.212586E-3,3.169639E-2,-1.5286222E-1,-4.270131E-1,1.424153E-1,-1.0809376E-2,-5.2964877E-2,4.963888E-2,-3.405772E-2],"categories":[],"categories_nodes":[],"categories_segments":[],"categories_sizes":[],"default_left":[0,0,0,0,0,0,0,0,0],"id":78,"left_children":[1,-1,3,5,7,-1,-1,-1,-1],"loss_changes":[3.8282314E-1,0E0,5.0040406E-1,4.3106854E-2,7.442484E-1,0E0,0E0,0E0,0E0],"parents":[2147483647,0,0,2,2,3,3,4,4],"right_children":[2,-1,4,6,8,-1,-1,-1,-1],"split_conditions":[2.303E1,3.169639E-2,1.77E-2,2.06E-1,1.03E-1,-1.0809376E-2,-5.2964877E-2,4.963888E-2,-3.405772E-2],"split_indices":[21,0,15,26,6,0,0,0,0],"split_type":[0,0,0,0,0,0,0,0,0],"sum_hessian":[5.9785304E0,1.5481701E0,4.4303603E0,2.0660198E0,2.3643408E0,1.0028983E0,1.0631214E0,1.3483974E0,1.0159434E0],"tree_param":{"num_deleted":"0","num_feature":"30","num_nodes":"9","size_leaf_vector":"1"}},{"base_weights":[-5.3064153E-3,1.6249943E-1,-2.93103E-2,-2.0170499E-2,4.6460953E-2],"categories":[],"categories_nodes":[],"categories_segments":[],"categories_sizes":[],"default_left":[0,0,0,0,0],"id":79,"left_children":[1,3,-1,-1,-1],"loss_changes":[3.793425E-1,6.4189744E-1,0E0,0E0,0E0],"parents":[2147483647,0,0,1,1],"right_children":[2,4,-1,-1,-1],"split_conditions":[6.988E2,1.75E-2,-2.93103E-2,-2.0170499E-2,4.6460953E-2],"split_indices":[3,18,0,0,0],"split_type":[0,0,0,0,0],"sum_hessian":[5.868634E0,3.982134E0,1.8865001E0,1.9562052E0,2.0259287E0],"tree_param":{"num_deleted":"0","num_feature":"30","num_nodes":"5","size_leaf_vector":"1"}},{"base_weights":[-5.132039E-3,1.3424227E-1,-3.5690423E-2,-3.0425105E-2,3.4913787E-1,5.9783798E-2,-6.4076344E-3],"categories":[],"categories_nodes":[],"categories_segments":[],"categories_sizes":[],"default_left":[0,0,0,0,0,0,0],"id":80,"left_children":[1,3,-1,-1,5,-1,-1],"loss_changes":[3.8082567E-1,6.329782E-1,0E0,0E0,4.7169107E-1,0E0,0E0],"parents":[2147483647,0,0,1,1,4,4],"right_children":[2,4,-1,-1,6,-1,-1],"split_conditions":[3.215E-1,1.203E-2,-3.5690423E-2,-3.0425105E-2,5.259E-2,5.9783798E-2,-6.4076344E-3],"split_indices":[28,15,0,0,7,0,0],"split_type":[0,0,0,0,0,0,0],"sum_hessian":[5.790283E0,4.5900574E0,1.200226E0,1.3728848E0,3.2171726E0,1.7294648E0,1.4877077E0],"tree_param":{"num_deleted":"0","num_feature":"30","num_nodes":"7","size_leaf_vector":"1"}},{"base_weights":[-6.3119596E-3,2.7535636E-2,-1.7261392E-1,4.656218E-2,-4.637036E-2,3.4065183E-2,-2.7839312E-2],"categories":[],"categories_nodes":[],"categories_segments":[],"categories_sizes":[],"default_left":[0,0,0,0,0,0,0],"id":81,"left_children":[1,-1,3,5,-1,-1,-1],"loss_changes":[3.6097595E-1,0E0,3.2924014E-1,4.445677E-1,0E0,0E0,0E0],"parents":[2147483647,0,0,2,2,3,3],"right_children":[2,-1,4,6,-1,-1,-1],"split_conditions":[2.085E-1,2.7535636E-2,8.693E2,2.987E1,-4.637036E-2,3.4065183E-2,-2.7839312E-2],"split_indices":[26,0,23,21,0,0,0],"split_type":[0,0,0,0,0,0,0],"sum_hessian":[5.691551E0,1.8694583E0,3.822093E0,2.659593E0,1.1625E0,1.3707445E0,1.2888488E0],"tree_param":{"num_deleted":"0","num_feature":"30","num_nodes":"7","size_leaf_vector":"1"}},{"base_weights":[-7.7201775E-3,3.0164242E-2,-1.5340953E-1,-4.0221304E-2,1.2572195E-1,4.7767952E-2,-2.7315697E-2],"categories":[],"categories_nodes":[],"categories_segments":[],"categories_sizes":[],"default_left":[0,0,0,0,0,0,0],"id":82,"left_children":[1,-1,3,-1,5,-1,-1],"loss_changes":[3.4364456E-1,0E0,4.0811387E-1,0E0,5.780619E-1,0E0,0E0],"parents":[2147483647,0,0,2,2,4,4],"right_children":[2,-1,4,-1,6,-1,-1],"split_conditions":[2.303E1,3.0164242E-2,1.77E-2,-4.0221304E-2,5.074E-2,4.7767952E-2,-2.7315697E-2],"split_indices":[21,0,15,0,7,0,0],"split_type":[0,0,0,0,0,0,0],"sum_hessian":[5.5978303E0,1.4494854E0,4.148345E0,1.9601884E0,2.1881566E0,1.057499E0,1.1306576E0],"tree_param":{"num_deleted":"0","num_feature":"30","num_nodes":"7","size_leaf_vector":"1"}},{"base_weights":[-5.3516193E-3,1.2944157E-1,-3.4081828E-2,-2.7840799E-2,3.3452824E-1,5.366509E-2,-1.0037554E-2],"categories":[],"categories_nodes":[],"categories_segments":[],"categories_sizes":[],"default_left":[0,0,0,0,0,0,0],"id":83,"left_children":[1,3,-1,-1,5,-1,-1],"loss_changes":[3.3853078E-1,5.4225624E-1,0E0,0E0,4.0785876E-1,0E0,0E0],"parents":[2147483647,0,0,1,1,4,4],"right_children":[2,4,-1,-1,6,-1,-1],"split_conditions":[3.215E-1,1.203E-2,-3.4081828E-2,-2.7840799E-2,5.596E-2,5.366509E-2,-1.0037554E-2],"split_indices":[28,15,0,0,7,0,0],"split_type":[0,0,0,0,0,0,0],"sum_hessian":[5.5109177E0,4.369402E0,1.141516E0,1.3423657E0,3.027036E0,1.9068632E0,1.1201727E0],"tree_param":{"num_deleted":"0","num_feature":"30","num_nodes":"7","size_leaf_vector":"1"}},{"base_weights":[-7.5119133E-3,2.6397994E-2,-1.6995929E-1,1.4448556E-2,-3.3805057E-1,-8.849719E-3,-4.5182865E-2],"categories":[],"categories_nodes":[],"categories_segments":[],"categories_sizes":[],"default_left":[0,0,0,0,0,0,0],"id":84,"left_children":[1,-1,3,-1,5,-1,-1],"loss_changes":[3.2821658E-1,0E0,2.9345483E-1,0E0,5.4145932E-2,0E0,0E0],"parents":[2147483647,0,0,2,2,4,4],"right_children":[2,-1,4,-1,6,-1,-1],"split_conditions":[2.085E-1,2.6397994E-2,7.259E2,1.4448556E-2,8.887E2,-8.849719E-3,-4.5182865E-2],"split_indices":[26,0,23,0,23,0,0],"split_type":[0,0,0,0,0,0,0],"sum_hessian":[5.4247293E0,1.7967966E0,3.6279325E0,1.312709E0,2.3152237E0,1.2817413E0,1.0334823E0],"tree_param":{"num_deleted":"0","num_feature":"30","num_nodes":"7","size_leaf_vector":"1"}},{"base_weights":[-8.981912E-3,2.948979E-2,-1.5411161E-1,1.53075475E-2,-3.6540407E-1,-1.1888384E-2,-4.3386515E-2],"categories":[],"categories_nodes":[],"categories_segments":[],"categories_sizes":[],"default_left":[0,0,0,0,0,0,0],"id":85,"left_children":[1,-1,3,-1,5,-1,-1],"loss_changes":[3.2587394E-1,0E0,3.778785E-1,0E0,3.0008554E-3,0E0,0E0],"parents":[2147483647,0,0,2,2,4,4],"right_children":[2,-1,4,-1,6,-1,-1],"split_conditions":[2.303E1,2.948979E-2,9.029E-2,1.53075475E-2,2.665E1,-1.1888384E-2,-4.3386515E-2],"split_indices":[21,0,4,0,13,0,0],"split_type":[0,0,0,0,0,0,0],"sum_hessian":[5.3585987E0,1.398464E0,3.9601347E0,1.726131E0,2.2340038E0,1.0803411E0,1.1536627E0],"tree_param":{"num_deleted":"0","num_feature":"30","num_nodes":"7","size_leaf_vector":"1"}},{"base_weights":[-9.844385E-3,1.9755381E-1,-2.1429557E-1,4.239448E-2,-1.8585587E-2,9.547319E-3,-4.1722428E-2],"categories":[],"categories_nodes":[],"categories_segments":[],"categories_sizes":[],"default_left":[0,0,0,0,0,0,0],"id":86,"left_children":[1,3,5,-1,-1,-1,-1],"loss_changes":[3.09834E-1,3.9578944E-1,2.696853E-1,0E0,0E0,0E0,0E0],"parents":[2147483647,0,0,1,1,2,2],"right_children":[2,4,6,-1,-1,-1,-1],"split_conditions":[2.829E-1,1.403E-2,1.374E-1,4.239448E-2,-1.8585587E-2,9.547319E-3,-4.1722428E-2],"split_indices":[28,17,24,0,0,0,0],"split_type":[0,0,0,0,0,0,0],"sum_hessian":[5.3085227E0,2.652016E0,2.6565068E0,1.6009715E0,1.0510446E0,1.2610496E0,1.395457E0],"tree_param":{"num_deleted":"0","num_feature":"30","num_nodes":"7","size_leaf_vector":"1"}},{"base_weights":[-1.0258377E-2,1.7098835E-1,-2.4460189E-1,4.1854706E-2,-8.729893E-3,4.929117E-4,-3.7050616E-2],"categories":[],"categories_nodes":[],"categories_segments":[],"categories_sizes":[],"default_left":[0,0,0,0,0,0,0],"id":87,"left_children":[1,3,5,-1,-1,-1,-1],"loss_changes":[3.069583E-1,2.9923907E-1,1.0028112E-1,0E0,0E0,0E0,0E0],"parents":[2147483647,0,0,1,1,2,2],"right_children":[2,4,6,-1,-1,-1,-1],"split_conditions":[3.219E1,2.829E-1,1.096E-1,4.1854706E-2,-8.729893E-3,4.929117E-4,-3.7050616E-2],"split_indices":[13,28,27,0,0,0,0],"split_type":[0,0,0,0,0,0,0],"sum_hessian":[5.2422714E0,3.1084645E0,2.133807E0,1.2703809E0,1.8380835E0,1.0378102E0,1.0959967E0],"tree_param":{"num_deleted":"0","num_feature":"30","num_nodes":"7","size_leaf_vector":"1"}},{"base_weights":[-9.834086E-3,2.8581312E-2,-1.5094037E-1,-3.8256403E-2,1.2411928E-2],"categories":[],"categories_nodes":[],"categories_segments":[],"categories_sizes":[],"default_left":[0,0,0,0,0],"id":88,"left_children":[1,-1,3,-1,-1],"loss_changes":[3.0105734E-1,0E0,3.558042E-1,0E0,0E0],"parents":[2147483647,0,0,2,2],"right_children":[2,-1,4,-1,-1],"split_conditions":[2.303E1,2.8581312E-2,1.77E-2,-3.8256403E-2,1.2411928E-2],"split_indices":[21,0,15,0,0],"split_type":[0,0,0,0,0],"sum_hessian":[5.1824293E0,1.3430151E0,3.8394141E0,1.8721035E0,1.9673107E0],"tree_param":{"num_deleted":"0","num_feature":"30","num_nodes":"5","size_leaf_vector":"1"}},{"base_weights":[-8.4594395E-3,1.4915001E-1,-2.7658304E-2,-1.9216973E-2,4.331058E-2],"categories":[],"categories_nodes":[],"categories_segments":[],"categories_sizes":[],"default_left":[0,0,0,0,0],"id":89,"left_children":[1,3,-1,-1,-1],"loss_changes":[3.010431E-1,5.2144104E-1,0E0,0E0,0E0],"parents":[2147483647,0,0,1,1],"right_children":[2,4,-1,-1,-1],"split_conditions":[6.988E2,1.75E-2,-2.7658304E-2,-1.9216973E-2,4.331058E-2],"split_indices":[3,18,0,0,0],"split_type":[0,0,0,0,0],"sum_hessian":[5.14761E0,3.5213835E0,1.6262268E0,1.7459555E0,1.775428E0],"tree_param":{"num_deleted":"0","num_feature":"30","num_nodes":"5","size_leaf_vector":"1"}},{"base_weights":[-8.15998E-3,2.487283E-2,-1.6293402E-1,1.3952317E-2,-3.2633162E-1,-9.157656E-3,-4.0145945E-2],"categories":[],"categories_nodes":[],"categories_segments":[],"categories_sizes":[],"default_left":[0,0,0,0,0,0,0],"id":90,"left_children":[1,-1,3,-1,5,-1,-1],"loss_changes":[2.82388E-1,0E0,2.629931E-1,0E0,1.8903166E-2,0E0,0E0],"parents":[2147483647,0,0,2,2,4,4],"right_children":[2,-1,4,-1,6,-1,-1],"split_conditions":[2.085E-1,2.487283E-2,7.259E2,1.3952317E-2,1.357E-1,-9.157656E-3,-4.0145945E-2],"split_indices":[26,0,23,0,27,0,0],"split_type":[0,0,0,0,0,0,0],"sum_hessian":[5.0830965E0,1.6828773E0,3.4002194E0,1.2438687E0,2.1563509E0,1.0607436E0,1.0956072E0],"tree_param":{"num_deleted":"0","num_feature":"30","num_nodes":"7","size_leaf_vector":"1"}},{"base_weights":[-9.204929E-3,2.7506232E-2,-1.4448087E-1,1.4478487E-2,-3.442226E-2],"categories":[],"categories_nodes":[],"categories_segments":[],"categories_sizes":[],"default_left":[0,0,0,0,0],"id":91,"left_children":[1,-1,3,-1,-1],"loss_changes":[2.7153197E-1,0E0,3.2369336E-1,0E0,0E0],"parents":[2147483647,0,0,2,2],"right_children":[2,-1,4,-1,-1],"split_conditions":[2.303E1,2.7506232E-2,9.029E-2,1.4478487E-2,-3.442226E-2],"split_indices":[21,0,4,0,0],"split_type":[0,0,0,0,0],"sum_hessian":[5.0276585E0,1.2879122E0,3.739746E0,1.6399345E0,2.0998116E0],"tree_param":{"num_deleted":"0","num_feature":"30","num_nodes":"5","size_leaf_vector":"1"}},{"base_weights":[-7.088273E-3,1.6455625E-1,-2.3059015E-1,4.038075E-2,-8.4536625E-3,6.339113E-4,-3.5159595E-2],"categories":[],"categories_nodes":[],"categories_segments":[],"categories_sizes":[],"default_left":[0,0,0,0,0,0,0],"id":92,"left_children":[1,3,5,-1,-1,-1,-1],"loss_changes":[2.676583E-1,2.7075696E-1,8.873947E-2,0E0,0E0,0E0,0E0],"parents":[2147483647,0,0,1,1,2,2],"right_children":[2,4,6,-1,-1,-1,-1],"split_conditions":[3.219E1,2.829E-1,1.096E-1,4.038075E-2,-8.4536625E-3,6.339113E-4,-3.5159595E-2],"split_indices":[13,28,27,0,0,0,0],"split_type":[0,0,0,0,0,0,0],"sum_hessian":[4.9879055E0,2.9704227E0,2.0174828E0,1.1983283E0,1.7720946E0,1.0023991E0,1.0150837E0],"tree_param":{"num_deleted":"0","num_feature":"30","num_nodes":"7","size_leaf_vector":"1"}},{"base_weights":[-6.8321284E-3,-2.9097974E-2,1.2801975E-1,4.069638E-2,-2.1526119E-2],"categories":[],"categories_nodes":[],"categories_segments":[],"categories_sizes":[],"default_left":[0,0,0,0,0],"id":93,"left_children":[1,-1,3,-1,-1],"loss_changes":[2.6465046E-1,0E0,5.394794E-1,0E0,0E0],"parents":[2147483647,0,0,2,2],"right_children":[2,-1,4,-1,-1],"split_conditions":[6.053E-2,-2.9097974E-2,5.252E-2,4.069638E-2,-2.1526119E-2],"split_indices":[5,0,7,0,0],"split_type":[0,0,0,0,0],"sum_hessian":[4.934555E0,1.2155293E0,3.7190256E0,1.9494358E0,1.7695897E0],"tree_param":{"num_deleted":"0","num_feature":"30","num_nodes":"5","size_leaf_vector":"1"}},{"base_weights":[-7.780726E-3,1.4353561E-1,-2.6280535E-2,-1.7932098E-2,4.1387703E-2],"categories":[],"categories_nodes":[],"categories_segments":[],"categories_sizes":[],"default_left":[0,0,0,0,0],"id":94,"left_children":[1,3,-1,-1,-1],"loss_changes":[2.6463768E-1,4.5278168E-1,0E0,0E0,0E0],"parents":[2147483647,0,0,1,1],"right_children":[2,4,-1,-1,-1],"split_conditions":[6.988E2,1.75E-2,-2.6280535E-2,-1.7932098E-2,4.1387703E-2],"split_indices":[3,18,0,0,0],"split_type":[0,0,0,0,0],"sum_hessian":[4.8802624E0,3.337286E0,1.5429763E0,1.6743599E0,1.662926E0],"tree_param":{"num_deleted":"0","num_feature":"30","num_nodes":"5","size_leaf_vector":"1"}},{"base_weights":[-7.4491976E-3,1.2130552E-1,-3.1269234E-2,-2.6444022E-2,3.2359663E-1,5.2679457E-2,-3.1761227E-3],"categories":[],"categories_nodes":[],"categories_segments":[],"categories_sizes":[],"default_left":[0,0,0,0,0,0,0],"id":95,"left_children":[1,3,-1,-1,5,-1,-1],"loss_changes":[2.668002E-1,4.6139935E-1,0E0,0E0,2.7733874E-1,0E0,0E0],"parents":[2147483647,0,0,1,1,4,4],"right_children":[2,4,-1,-1,6,-1,-1],"split_conditions":[3.202E-1,1.203E-2,-3.1269234E-2,-2.6444022E-2,5.259E-2,5.2679457E-2,-3.1761227E-3],"split_indices":[28,15,0,0,7,0,0],"split_type":[0,0,0,0,0,0,0],"sum_hessian":[4.823414E0,3.8162668E0,1.007147E0,1.2071484E0,2.6091185E0,1.3530143E0,1.2561041E0],"tree_param":{"num_deleted":"0","num_feature":"30","num_nodes":"7","size_leaf_vector":"1"}},{"base_weights":[-8.017886E-3,1.8256453E-1,-2.1341652E-1,3.8239416E-2,-4.856432E-3,5.414892E-3,-3.6204286E-2],"categories":[],"categories_nodes":[],"categories_segments":[],"categories_sizes":[],"default_left":[0,0,0,0,0,0,0],"id":96,"left_children":[1,3,5,-1,-1,-1,-1],"loss_changes":[2.6417476E-1,1.8129492E-1,1.480536E-1,0E0,0E0,0E0,0E0],"parents":[2147483647,0,0,1,1,2,2],"right_children":[2,4,6,-1,-1,-1,-1],"split_conditions":[2.02E1,2.668E-3,1.012E2,3.8239416E-2,-4.856432E-3,5.414892E-3,-3.6204286E-2],"split_indices":[1,19,22,0,0,0,0],"split_type":[0,0,0,0,0,0,0],"sum_hessian":[4.7532344E0,2.5232067E0,2.230028E0,1.0022322E0,1.5209744E0,1.0233703E0,1.2066576E0],"tree_param":{"num_deleted":"0","num_feature":"30","num_nodes":"7","size_leaf_vector":"1"}},{"base_weights":[-6.8181176E-3,2.8760022E-2,-1.3059045E-1,6.731769E-2,-4.088226E-2,-2.6164506E-2,3.1173212E-2],"categories":[],"categories_nodes":[],"categories_segments":[],"categories_sizes":[],"default_left":[0,0,0,0,0,0,0],"id":97,"left_children":[1,-1,3,5,-1,-1,-1],"loss_changes":[2.4555257E-1,0E0,2.866616E-1,3.7170988E-1,0E0,0E0,0E0],"parents":[2147483647,0,0,2,2,3,3],"right_children":[2,-1,4,6,-1,-1,-1],"split_conditions":[1.983E1,2.8760022E-2,1.36E-1,7.175E-2,-4.088226E-2,-2.6164506E-2,3.1173212E-2],"split_indices":[13,0,24,5,0,0,0],"split_type":[0,0,0,0,0,0,0],"sum_hessian":[4.7077355E0,1.0015997E0,3.7061362E0,2.6086442E0,1.0974917E0,1.08194E0,1.5267043E0],"tree_param":{"num_deleted":"0","num_feature":"30","num_nodes":"7","size_leaf_vector":"1"}},{"base_weights":[-7.471674E-3,1.3993111E-1,-2.5412006E-2,-1.6974615E-2,3.997387E-2],"categories":[],"categories_nodes":[],"categories_segments":[],"categories_sizes":[],"default_left":[0,0,0,0,0],"id":98,"left_children":[1,3,-1,-1,-1],"loss_changes":[2.408524E-1,4.0410545E-1,0E0,0E0,0E0],"parents":[2147483647,0,0,1,1],"right_children":[2,4,-1,-1,-1],"split_conditions":[6.988E2,1.75E-2,-2.5412006E-2,-1.6974615E-2,3.997387E-2],"split_indices":[3,18,0,0,0],"split_type":[0,0,0,0,0],"sum_hessian":[4.646644E0,3.1792939E0,1.4673501E0,1.6085873E0,1.5707066E0],"tree_param":{"num_deleted":"0","num_feature":"30","num_nodes":"5","size_leaf_vector":"1"}},{"base_weights":[-7.121196E-3,1.7549782E-1,-2.0414923E-1,3.5366166E-2,-4.4490774E-3,4.31638E-3,-3.4080926E-2],"categories":[],"categories_nodes":[],"categories_segments":[],"categories_sizes":[],"default_left":[0,0,0,0,0,0,0],"id":99,"left_children":[1,3,5,-1,-1,-1,-1],"loss_changes":[2.3713318E-1,1.5061241E-1,1.2129113E-1,0E0,0E0,0E0,0E0],"parents":[2147483647,0,0,1,1,2,2],"right_children":[2,4,6,-1,-1,-1,-1],"split_conditions":[2.02E1,2.744E-3,7.088E2,3.5366166E-2,-4.4490774E-3,4.31638E-3,-3.4080926E-2],"split_indices":[1,19,23,0,0,0,0],"split_type":[0,0,0,0,0,0,0],"sum_hessian":[4.59476E0,2.4412854E0,2.1534746E0,1.0131342E0,1.4281511E0,1.009941E0,1.1435337E0],"tree_param":{"num_deleted":"0","num_feature":"30","num_nodes":"7","size_leaf_vector":"1"}}]},"name":"gbtree"},"learner_model_param":{"base_score":"6.2857145E-1","boost_from_average":"1","num_class":"0","num_feature":"30","num_target":"1"},"objective":{"name":"binary:logistic","reg_loss_param":{"scale_pos_weight":"1"}}},"version":[3,0,5]}